9996 16
the -0.00954898 0.040591273 -0.00012871306 -0.051423877 -0.01783944 -0.0031746128 -0.046346307 0.0527998 -0.07889559 0.051105272 0.048717625 -0.0264222 -0.03201551 -0.03692174 -0.10455159 0.013946739
and 0.038620763 -0.09827494 0.07081347 -0.11632515 -0.027411371 -0.030409195 -0.024754323 -0.082683735 0.039145608 -0.041916534 -0.0551526 -0.056646734 0.04130997 -0.042850263 -0.027399648 -0.041623823
a 0.010724336 -0.021847349 -0.027954066 -0.010122891 -0.058991916 -0.0062077437 -0.06290782 -0.030698586 -0.064925715 0.042978074 0.025154607 0.005980719 0.01924734 -0.0752943 -0.044716775 -0.046808623
of -0.029183222 0.037314564 0.04508061 0.050545536 -0.076200984 0.02937981 -0.04718711 0.036146145 0.04115566 -0.009640702 0.05855579 0.026675092 -0.025932672 0.0032680933 0.00734267 -0.062238567
to 0.04609291 0.03741494 0.032360476 -0.03469946 0.011982763 -0.06625376 -0.018772539 0.0112679135 -0.0022585432 0.043504175 -0.011226283 -0.0010512084 -0.045536567 -0.077153735 -0.03481256 0.046535436
is -0.013532056 -0.07647681 -0.028705947 -0.10139339 -0.12889759 -0.06474879 0.02814525 0.017825346 0.040494226 -0.03118218 0.028950147 0.054379914 0.025650673 -0.06768781 -0.051208615 -0.057134986
br -0.011303524 -0.014864413 -0.0043510795 -0.05184314 -0.007971995 -0.049659103 0.012887051 0.05550862 -0.036269628 0.044580985 0.058397263 0.03830559 -0.0029783342 0.040799778 0.044332877 -0.049932294
in 0.070656195 -0.017406506 -0.011712058 0.018553998 0.0037997633 -0.016575696 -0.08842066 -0.007845711 -0.027780544 0.032782108 0.0027579954 -0.028527595 -0.0006406504 -0.006511581 0.006800933 0.025306834
it 0.03581053 0.04277024 -0.017248666 0.0020537118 0.043806493 -0.04119284 0.014805908 -0.024704058 -0.06594418 0.008753075 -0.04175879 -0.04914235 0.03009752 -0.037676252 -0.057785843 -0.07986571
i 0.045176584 -0.014885736 -0.03137325 -0.06314256 -0.06551393 -0.05762102 -0.002230731 0.038680423 0.020646384 -0.008660393 0.022165995 -0.02385007 0.0131079005 0.005745397 -0.05126542 -0.05512565
this 0.026464587 0.058174044 -0.021916375 -0.025562527 0.039179504 -0.079893924 0.00630225 0.0072746775 -0.030878874 -0.027928213 -0.059912976 0.064059645 -0.044048782 -0.00096369325 -0.113427565 0.032182526
that 0.024779573 -0.015061284 -0.015416449 0.04018739 -0.013034862 0.0400453 0.011375504 -0.059634425 0.031448167 -0.034968868 -0.029847069 0.010203266 0.05030615 -0.041150693 -0.03996693 0.018269444
was -0.030730551 -0.0051703854 -0.007746204 0.006342783 -0.0042900434 -0.05077462 -0.02552274 0.02703432 0.037613466 0.057144362 0.050888225 -0.001381351 -0.034898397 0.061284732 0.03357545 0.027003571
as 0.04216933 -0.0038648064 0.023812443 0.0033675493 0.005623463 -0.015013366 -0.03984116 0.014106983 0.028162962 -0.019301787 0.01447073 -0.0124929 -0.012938902 -0.06182579 -0.011776601 0.018174171
for -0.03082805 -0.050944105 0.040601622 -0.078080915 -0.008069096 -0.04044276 0.01291114 0.045626104 -0.012428197 -0.03760368 0.047729798 -0.008107172 -0.0527067 0.037154753 0.023608183 -0.03022615
with -0.036351636 -0.008715605 0.03529428 0.02054893 0.027818197 0.04248841 0.03578102 -0.049203414 0.0019093064 -0.03561574 -0.017018499 -0.027764149 0.00838713 0.061078377 -0.017115675 -0.013754998
movie 0.05333689 -0.0026790604 0.0045407047 -0.054260246 -0.013519309 -0.062118888 0.010401115 -0.05037378 -0.051290043 0.026875023 0.0020201379 0.08406486 0.027388733 -0.022514893 -0.1148086 -0.008139953
but -0.0062840427 0.0046451483 -0.036770113 -0.019583035 -0.02187551 -0.04503415 -0.016034514 0.056703694 -0.033387516 -0.05755883 -0.023619551 -0.024632404 0.02650765 -0.06532389 0.025260178 -0.040494103
film -0.020381413 -0.062020686 -0.05182843 0.00556133 0.033783875 0.017538462 -0.0087609105 -0.029341053 -0.00028060918 0.00016906255 0.007432415 -0.0363714 0.0024078067 -0.05758032 0.0023248682 -0.05507027
on -0.039702047 -0.010028756 0.034146767 -0.020052608 0.023669567 -0.022473045 -0.00677099 0.004019648 0.045748867 0.025402956 -0.019463882 0.059924837 -0.019870711 -0.042697504 -0.0058597433 0.020939399
not -0.05957871 -0.027722416 -0.016432237 0.016039938 -0.016267804 0.03313585 -0.046934724 -0.06362839 0.10053234 0.035522275 -0.058462705 -0.010394873 0.013828349 -0.024101052 0.06159359 0.0115542095
you 0.0077619967 -0.029290192 0.048977833 -0.012149941 0.04537431 0.031795584 -0.003653041 0.03279209 -0.03311114 -0.03681856 0.020647919 -0.009385845 0.06360908 -0.03184884 -0.009113639 -0.06564898
are 0.05198563 0.042486973 -0.022466745 0.015528952 0.010429713 -0.033221044 0.038318977 0.010240149 0.033669345 0.06088293 0.060127854 0.014064585 -0.023151003 0.06311718 -0.002440739 -0.0137957465
his -0.040508196 -0.09202214 -0.010480412 -0.017467488 0.017082077 0.08785033 0.06640986 -0.014820129 0.025080662 0.0064929677 -0.014052331 -0.020991517 -0.0072761844 -0.028046446 -0.009114171 -0.040516663
have 0.024841322 0.042965483 0.02264516 0.10185733 0.002653752 -0.030002458 -0.039632652 -0.022913223 0.0637913 -0.037019406 -0.004411299 0.010645833 -0.012371426 -0.0054398803 0.010663409 0.048664212
he 0.03719737 0.02336404 -8.7593966e-05 -0.046496235 -0.0075348974 0.03503977 0.031058436 -0.05446553 -0.026003152 -0.0025397243 0.028937882 0.0005032235 0.023058107 0.022908526 -0.035570122 -0.048775338
be 0.028607767 0.03535032 0.033474535 0.0024313584 0.032402344 0.024148796 0.0006785266 0.01245469 -0.009661294 0.043534927 -0.002581066 0.00980147 -0.047843955 -0.014016435 0.042851083 -0.025064452
one -0.054924753 0.009822427 -0.06255344 -0.07066373 0.015245061 -0.018063636 -0.07432678 -0.012945534 -0.021439986 0.012957553 -0.027824026 -0.026976062 0.016478864 0.039185535 -0.10292082 -0.010443928
all 0.040465653 0.027724436 0.022836905 0.059904482 -0.031570543 -0.040710203 0.04479128 0.045517568 0.04722617 0.00654118 0.0062521533 -0.07008908 0.0060237506 -0.020943232 -0.035483114 0.049914084
at 0.050682362 0.045282282 0.01152082 -0.051862374 -0.02243266 -0.009142709 -0.015946576 0.039823826 0.013356838 0.040239077 0.07745491 0.029840965 0.040927317 0.049719743 -0.0023753247 -0.013332719
by -0.022908892 0.03220611 -0.022439944 -0.038833875 -0.042891677 -0.017006218 0.0010922395 0.057119835 -0.02226408 0.013717177 0.017450444 -0.03387986 0.0348361 0.034028318 0.01736314 0.040051356
an 0.057789672 0.02110591 -0.031666495 -0.03813287 -0.0016252595 -0.0020440372 0.045607448 -0.008244718 -0.034348093 -0.020668251 -0.027301261 0.045478944 -0.011565226 -0.0031133508 -0.051995307 -0.012604544
they -0.039618425 -0.033293355 -0.0017697726 0.03628118 -0.022623582 0.022435915 -0.016853288 0.01952591 -0.008336404 -0.003964379 -0.08076964 0.0044946633 -0.036159556 0.00038993097 0.036441267 -0.037539266
who 0.046279676 -0.08121039 0.09917519 -0.057184663 0.016658444 0.051820356 0.05807737 0.039730188 0.056612115 -0.04805212 0.0060823387 -0.031056533 0.028572556 0.02524757 0.014996013 0.013024539
so 0.064298846 0.010239257 -0.010612277 -0.028561857 -0.049827427 -0.00831505 0.04628301 0.032902326 -0.057511836 0.070130646 -0.024342451 0.05360716 -0.0035349592 -0.00470563 -0.09772281 -0.008914539
from 0.05606989 -0.017392948 -0.006513985 0.036744986 -0.061078593 0.024609065 -0.059975866 -0.026096815 -0.053019807 0.025840133 0.0316369 -0.031859983 0.046876747 0.02072796 0.05946495 0.036953144
like -0.037708804 0.039570402 0.004563083 -0.029707514 0.03563504 0.05428947 0.032981105 0.017671436 -0.021661973 -0.0513935 -0.0062596435 0.060597885 -0.0609346 0.06281205 -0.06643752 0.047469
her -0.03902236 -0.017624764 0.048907388 0.018827137 0.0032429972 0.001282828 0.037932657 -0.030407907 -0.021854794 -0.03913388 0.019131871 0.029534327 -0.012394204 -0.05183249 0.013821063 -0.0155687425
or -0.0020502189 0.023593038 -0.0017652409 0.037835676 0.004953082 -0.031284273 -0.01280001 0.02348756 -0.040017348 -0.0055648414 0.024838578 -0.02876951 0.0011068997 0.02582056 0.008196158 0.035456784
just -0.014249065 0.046918724 0.024887875 0.025158914 -0.023430014 0.044592373 0.015283892 -0.09254456 -0.022480741 0.089359015 -0.070375405 0.02077643 -0.036615252 0.08249915 0.033534534 0.015589833
about 0.024338989 -0.0017559787 -0.026297295 -0.0065481476 0.009533957 0.041275382 -0.030475583 0.083326995 -0.029256161 -0.046730123 0.031761196 -0.007021905 -0.025081007 0.027159803 0.060747497 0.017103346
it's 0.06737734 0.0210462 0.03071992 -0.03302686 0.012686007 -0.003049322 -0.016969465 0.043342013 -0.05704161 0.0003114637 -0.0530628 0.054604128 -0.009773577 -0.052015904 0.014006214 0.023557061
out 0.07350111 0.033505056 0.013600884 -0.0716716 -0.0234544 -0.045052677 0.068370484 0.0032720675 -0.00041167391 0.01752384 -0.00934145 -0.03018422 0.0014660484 0.029203061 -0.033427544 -0.035482723
has -0.008232567 -0.02036333 -0.02770275 -0.044402435 0.019978436 0.05427425 -0.049501415 0.042946007 0.048237454 -0.0023374218 0.048637707 0.03620956 0.03724251 -0.035943534 -0.04659409 -0.030009635
if 0.034694128 0.02201075 -0.0423416 -0.07104999 -0.042547304 -0.0358137 -0.012859064 0.05496378 0.0020195467 -0.009039589 -0.06753091 0.033715468 -0.034131322 0.015573268 -0.0072605754 0.04167884
some 0.05741655 -0.025445009 0.010052523 -0.057078224 -0.064012796 -0.06347364 -0.022136003 0.052140463 0.0039664153 0.021197721 0.0050734063 -0.012566358 -0.011711399 -0.015443339 0.0007440143 -0.048710566
there 0.0005546626 -0.04872552 -0.02516644 0.049410567 -0.057418797 0.0025237245 -0.0721368 -0.016861007 0.026022105 0.03388828 0.095926896 0.017833171 0.060977124 0.017404424 -0.03609603 -0.02298621
what 0.03475829 -0.050880596 -0.05188788 0.027076283 0.034863897 0.007003404 -0.07111775 0.019616822 -0.017789975 -0.06529892 0.0009240868 -0.014375117 0.010142092 0.0020810403 0.029168114 -0.019597532
good 0.042939685 0.008184291 0.02800961 0.001785136 0.057426646 0.10622245 0.021893915 -0.07714311 -0.008029302 -0.033136003 -0.05343522 0.021903144 -0.0093691 -0.091881394 -0.005271457 -0.032233287
more 0.05632245 0.022155069 -0.03219538 -0.05199876 -0.05606848 -0.035679176 -0.048269354 0.045776352 -0.06744792 -0.035853166 0.016188448 0.004587402 0.021863557 -0.0050776326 -0.023132032 0.05121039
when 0.056271695 -0.027852386 0.023859661 0.056285635 -0.032508846 -0.013210003 0.02267281 -0.030876756 -0.03257586 0.016400041 0.008880332 -0.04756872 -0.0031168007 0.013116553 0.052183982 -0.01794668
very 0.03297848 -0.09677678 -0.009856069 -0.13911192 -0.0005163225 0.05635238 -0.12529422 0.10435148 0.054997627 -0.003979827 0.11163313 0.031008184 0.035911515 -0.077884555 0.054674365 -0.05175742
up -0.034963187 -0.029947337 -0.041397475 -0.016368154 -0.004117943 -0.045192312 0.034432665 -0.004049877 -0.029958887 -0.0064592427 0.022354605 -0.011753714 0.008683525 0.0007023852 -0.06854619 0.0032998745
no -0.08529452 -0.005769318 0.0480739 0.012511927 -0.0067655877 0.031163838 -0.029671147 -0.001201984 0.021416452 0.02986361 -0.06049599 0.005251075 -0.035917122 0.08358021 0.035073992 0.035784982
time 0.043846175 -0.015123879 0.014455276 -0.00015477862 0.0061541065 0.02659923 0.030404108 -0.0010320714 -0.0054406156 0.029618843 0.01985041 -0.051316585 0.013769114 0.002384122 0.01543325 0.0062810276
she -0.014831943 0.022981726 -0.075701945 -0.06643007 -0.013988955 0.0012433677 0.0036215514 0.026999153 -0.044613924 0.0046229963 -0.0061724847 -0.009570833 -0.0099910535 0.007035659 0.0012067775 -0.012988856
even -0.043155473 0.11741743 -0.056288775 -0.025050476 -0.08648321 -0.06191675 0.1073492 -0.017733596 -0.05125067 0.1065914 -0.016321024 -0.01543009 -0.048368104 0.028524235 -0.01545597 0.09229145
my 0.017273005 0.025887169 -0.022127261 0.10023055 -0.046594635 -0.019027947 0.042800147 -0.0407909 0.021976532 0.0044595157 0.02609746 -0.014917741 0.006944725 -0.02502663 -0.062476944 -0.026261881
would 0.0007462072 0.06765709 0.008156955 -0.021452157 -0.014123493 0.011219042 0.049697842 -0.037124306 0.055955052 0.054344896 -0.032787733 -0.02206677 -0.051077798 0.053567268 -0.025194755 0.014051263
which 0.012994604 0.006907148 -0.0054889107 0.014737619 -0.00022116647 0.07402114 -0.0023584003 0.018610269 0.049111422 -0.064445175 -0.02922848 0.008997183 -0.027659154 -0.0012258999 0.08496129 -0.06128167
only 0.028444305 0.032371283 0.036691755 -0.04949687 -0.056527253 -0.024924656 0.024502268 -0.046634525 -0.036795188 0.036142442 -0.033948842 0.00946786 0.016352678 0.04778696 0.018329607 -0.030292803
story -0.062195238 -0.058014028 -0.02002297 -0.009999347 -0.03135788 0.018145302 -0.07058172 0.04766597 0.049549997 0.01324362 0.07775324 0.04233678 -0.0076985345 -0.02283034 0.12732738 -0.06197587
really -0.014232662 0.048097674 0.033157207 -0.0027425967 -0.0065077622 0.01428965 0.018049112 0.041976657 -0.0015663242 0.016304115 -0.07918093 0.04733979 -0.06549492 -0.0043240977 -0.018795438 0.014911583
see 0.054404773 -0.05907194 0.054440755 -0.010443514 -0.034543976 -0.0065749655 -0.03491509 0.0052693994 -0.058541246 0.021432146 0.005859758 -0.0041490775 0.007862469 0.009875767 -0.010653643 -0.059882972
their 0.032855816 -0.043480285 0.01363791 -0.0073314514 -0.052954864 -0.08061213 -0.067121506 0.05290454 -0.026767248 0.05242469 0.049334668 0.032455094 0.024128413 0.01661598 -0.015671315 0.033845387
had 0.0024667992 0.030064996 -0.018865516 -0.0037320699 -0.00060147094 0.064737685 0.04047742 -0.024566166 -0.04565276 0.033384837 0.02068148 -0.008479387 -0.041457783 0.0053779213 0.048228797 0.030912077
can 0.037657637 0.030870657 -0.0053725354 0.00081584713 0.03247615 -0.05754915 -0.035998125 0.022377092 0.009699641 0.009890187 0.03546148 0.030417647 -0.04841172 -0.04969486 -0.043936282 0.006044299
were -0.016973736 0.046419393 -0.018727522 0.006158155 0.03882902 -0.013049688 0.07745125 -0.011490871 0.008843476 0.05878065 -0.06537814 0.027438274 -0.03370644 0.0022084378 -0.04751432 -0.04867956
me 0.0061879456 -0.023097271 -0.040039722 0.0045577083 -0.049987942 -0.035064388 -0.02600315 0.012676139 0.040659778 0.04741185 0.04221207 -0.044418618 -0.04025541 0.053488597 -0.0064470326 0.028511621
well 0.08589069 -0.083658464 0.10619698 0.030563382 0.02943593 0.0011551379 0.020003023 0.038306538 -0.0069797165 -0.039186835 -0.031419143 -0.094847664 0.0153017035 0.008021841 -0.09192263 -0.0139060225
than -0.0011301507 -0.035847604 0.033836253 -0.035266872 -0.05837785 -0.06309096 -0.10446946 0.012169474 -0.037408274 -0.013549813 -0.008008154 0.018434158 0.023348548 0.028514253 0.016689979 -0.017187404
we -0.049030397 -0.032420892 0.046768047 0.06594854 4.743773e-05 0.0488106 -0.007930293 -0.077808574 0.04708863 -0.04260104 -0.06173782 -0.04469567 0.06366183 -0.0071210586 0.016359352 -0.023839192
much 0.055703793 0.0072497968 -0.015107817 0.0068259523 0.0025883103 -0.041572988 0.024258563 0.021641813 0.012260838 -0.0019219932 -0.0017669341 0.019490508 -0.030774128 0.02757723 0.012603396 0.01599501
been -0.050946966 -0.012896544 -0.0629537 -0.082145736 0.026048495 -0.07180488 -0.012748526 0.04950558 0.019065656 -0.049673464 -0.012516427 0.038489778 -0.029315649 0.0772146 -0.0050802776 0.008774935
bad -0.065916836 0.137463 -0.09921035 0.22101106 -0.07305182 -0.043806937 -0.12658636 -0.048681643 0.13038957 -0.0022861478 0.19217604 0.07588674 -0.018048342 0.10763455 -0.15151887 0.071332015
get -0.0033171019 -0.023561286 0.027504181 0.03600169 -0.039453313 0.00070886314 0.014522047 -0.030211825 -0.07922778 0.023399342 -0.00044258806 0.017845767 -0.0045247986 -0.04389132 0.014017221 -0.037677594
will 0.049987413 0.01946004 0.012710501 0.023901839 0.056406394 0.043194834 -0.044202536 0.035330378 -0.017940206 -0.0100730965 0.07200208 -0.023842366 -0.05448786 -0.053103458 0.025800781 -0.030335333
do -0.042142034 0.06522008 -0.069765285 -0.017959798 -0.041384976 -0.023830745 0.046132803 0.010526101 -0.0065516876 0.06394229 0.03942881 0.03403718 -0.0030674853 -0.0008047379 0.005762989 0.00837651
also 0.066599 -0.06469736 0.097859636 0.040262636 0.07992579 0.0747358 0.022503069 0.020349223 0.02122391 -0.031616285 -0.011795653 -0.12935705 0.107205674 -0.036500257 -0.03573994 -0.06507228
into -0.02702627 0.016103588 -0.043499302 -0.018306589 0.022164645 0.00944377 0.041196413 0.09791921 -0.029918518 -0.05915396 -0.012525692 -0.039804682 0.061991375 0.03302245 -0.02241836 -0.037135884
people -0.030077616 -0.045430243 0.027203448 0.034525707 0.024423568 0.05625248 -0.00089755707 9.7982156e-05 -0.03737297 -0.010957034 -0.014272198 0.0036260104 -0.04123685 0.035143793 -0.019213034 -0.0012959434
other 0.021173289 0.010538525 0.01379092 0.0029754792 -0.030603634 0.0027667123 -0.043365132 0.030119183 0.006348546 -0.04478459 0.048320424 -0.08949409 0.035848204 -0.02034657 0.02110673 -0.07157195
first 0.031132216 -0.010695246 -0.011845073 -0.0356386 0.01873458 0.005619557 -0.06839841 0.06097936 -0.017386924 0.04011193 0.038100775 0.032506675 0.000659655 0.03930924 0.0046328306 -0.03174116
great 0.095330186 -0.112523206 0.08857505 -0.08029189 0.0367308 0.1396213 0.013501437 0.10717315 -0.079680085 -0.06963378 0.11738599 -0.07512633 0.1002124 -0.14173242 -0.042492412 -0.09475285
because 0.05107069 0.040553477 -0.07197859 0.020927852 -0.005251944 0.058175225 0.020391112 0.0050286218 0.032665253 -0.02447277 0.039036185 0.0029097633 -0.0067199194 -0.0041226437 -0.0006051313 0.023962667
how -0.008394966 0.049128897 -0.0054296074 0.011318792 -0.04208895 -0.014937086 0.012275627 0.051519785 0.009294465 0.051331606 -0.026660345 -0.01644418 0.019804213 0.00086546293 0.017969294 0.0056017465
him 0.06160239 -0.036859833 -0.04984311 0.016864026 -0.008015602 0.02497727 -0.03563371 -0.010124437 -0.05555136 0.004402568 0.030109959 -0.023907306 -0.050839577 -0.024329068 0.011268322 -0.0064065843
most -0.007107663 -0.06847283 0.0836803 -0.046604738 0.0012407812 0.014381608 0.056348562 0.058748167 -0.00038718447 -0.052341305 0.039488256 -0.07932957 0.0637852 -0.02044039 -0.042942695 -0.043210417
don't 0.07921036 0.007697059 -0.07100729 -0.017421074 -0.065368675 -0.020132747 0.039340746 -0.034453515 -0.01747778 0.010358229 -0.03530146 0.001609786 -0.011506217 -0.035305846 0.04738511 -0.0018072093
made 0.04781523 0.054384146 0.047596887 -0.013242124 -0.040044338 0.0042124395 -0.03140429 0.017849555 -0.08551306 -0.010526074 -0.010427654 0.037908312 0.07179069 0.011048213 -0.026179774 -0.0049535823
its -0.003428156 -0.05988171 0.003941358 -0.08182375 0.045047868 -0.029887332 0.055936657 0.019285964 -0.042051855 -0.032723203 -0.09150852 -0.028279334 -0.037585407 -0.0719999 -0.06027801 -0.08132658
then 0.008303907 0.011825411 -0.024373777 0.09492748 0.01650811 -0.042162735 -0.022090929 -0.058772054 0.010362876 0.079143025 0.029250735 0.012329555 -0.028463306 0.06406264 -0.06296612 0.044080067
way -0.013935251 -0.077486776 -0.016690264 0.06915086 0.021368222 0.002190934 0.02587729 0.0065037757 -0.04507962 0.020501176 -0.017434428 -0.10088105 0.06364822 -0.023367645 0.06413793 -0.014102378
make 0.0074294447 0.021926943 0.0029578914 -0.0032303643 -0.010679668 -0.03195606 -7.5791126e-05 -0.021067442 0.028193926 0.100516595 -0.0632111 0.01885068 0.022687122 0.07391693 0.03845936 0.026636275
them -0.012916756 0.058191884 -0.044460405 0.0635061 0.020245729 -0.04601677 0.04534255 0.00664123 0.0021153584 -0.016998904 0.002108723 -0.02261473 -0.029075129 -0.019933455 0.006016614 -0.0004271731
too 0.03609877 -0.026451252 0.011063851 -0.06753336 -0.017069414 0.03267552 0.02948774 0.026849296 0.036553647 0.08865965 0.045407362 0.029452836 0.035304647 0.0599489 -0.017402597 0.05663153
could -0.01602086 0.030107234 0.025838235 -0.026285116 0.02571555 -0.042460613 0.04565278 0.012018864 -0.01359448 0.0644609 -0.006817073 0.035932943 -0.00021540966 -0.028814461 0.06544023 0.062683724
any -0.08023264 0.08613196 -0.0020470978 -0.11611656 -0.07629903 -0.004626365 -0.0061615976 0.019461354 0.016899459 -0.019689757 -0.034000263 0.0762875 -0.039849177 0.038428955 0.055241972 0.07540035
movies 0.05255463 0.018985678 0.0578428 -0.08370468 -0.015501635 -0.001533869 0.002663951 0.008936406 -0.034721274 0.017277587 -0.050460804 -0.03136533 -0.022107933 -0.011962891 -0.05063948 -0.030045724
after -0.027983673 0.0038105706 0.01993989 -0.026931833 0.030399667 0.020353513 0.0124701 0.052617397 -0.05071152 0.050698806 -0.03266442 -0.036634002 0.039353926 -0.052533444 0.039542668 0.022286406
think -0.031776983 -0.039045155 0.045141604 0.021641942 0.031206034 -0.0045906277 -0.011261341 0.061824795 0.003018429 -0.013693992 0.06576847 0.019540178 0.04101005 -0.012913332 -0.02109743 -0.05528583
characters -0.0018112658 -0.031877995 -0.00014203144 0.047401663 -0.03997317 -0.038555402 -0.035740204 -0.05849602 -0.019951783 0.089406915 0.0067759124 0.023537623 0.04157754 0.05857083 -0.024678515 0.061608776
watch -0.01993004 -0.010224939 0.04912046 0.011861431 0.0043045194 0.014897576 0.019849418 -0.015338795 -0.04538644 -0.012242436 0.018319791 0.0066228965 0.067646034 0.012694618 -0.021918094 -0.033769023
two 0.01458087 -0.04507419 0.0034663784 0.037561048 -0.0009169553 -0.035613585 -0.043135993 0.020836592 0.009208092 -0.012189952 -0.020114668 0.053888395 -0.043018445 -0.0071534174 -0.0038591956 -0.016666593
films 0.009519983 -0.059659604 -0.035885066 -0.058147885 -0.024652366 -0.029320043 -0.052040648 0.020936597 -0.04162426 0.017607158 -0.026162352 -0.026644481 0.031162247 0.014636129 0.05045949 0.007673553
character -0.010819482 0.014100275 0.05420988 0.022980215 -0.019826548 0.036293678 -0.05771833 -0.021414006 -0.080376856 -0.021745589 0.020701671 -0.03482341 0.0032890874 0.024158679 -0.03651125 -0.041631605
seen 0.039057635 -0.058601584 0.07517573 -0.046118606 0.005244065 0.06753592 -0.015077373 -0.03275511 -0.03589594 -0.026305161 0.07011759 0.035436053 -0.0037896798 -0.0230078 0.045699846 -0.01793283
many 0.014071886 -0.10567328 0.06362381 -0.030854462 0.044996005 0.053742565 -0.0053846994 -0.004242497 -0.0016996517 -0.060627323 0.05884691 -0.09239351 0.054686867 0.049939442 0.0062240185 0.0117281955
being 0.062338583 0.024336068 0.007590015 0.0096656 -0.022516904 0.031066662 0.04050306 0.029533396 -0.03247469 0.011612601 0.0052794926 0.009323528 -0.049137186 -0.06386563 0.013612119 -0.048672933
life -0.0063251588 -0.07632213 0.0194852 -0.025874903 0.022839285 0.059577696 -0.047733 0.034492716 -0.06947124 -0.005481618 0.03609818 -0.019983267 0.051612798 -0.057821676 -0.019420821 -0.024698894
plot -0.015860524 0.067802995 -0.03760569 -0.09824775 -0.033680737 -0.03757001 0.040484272 0.0017880275 0.054635603 0.09242818 -0.063820004 0.005712343 -0.07376772 0.021313505 0.0902404 0.08781759
never 0.013871537 0.038428873 0.02522518 0.031750888 -0.035389207 0.037503686 -0.0033593497 0.07509064 0.009311199 0.04427374 0.031267863 -0.011500342 0.027430534 -0.050054267 0.06579893 -0.02018992
acting 0.026413487 0.0665168 -0.0014628958 -0.08092188 -0.07046853 -0.020330973 0.039557777 -0.053437654 0.07078386 0.008800676 -0.0823286 0.11564257 0.00019470828 0.045949064 0.12363454 0.099258505
little 0.08183061 0.00033270987 0.046519388 0.022354685 -0.011173902 -0.03752997 0.060898054 0.022832097 -0.019874567 0.024637101 -0.05114311 -0.045563493 -0.04547123 0.00018872097 0.026657023 0.058178987
best 0.057769727 -0.10751386 0.050262693 0.097656734 0.1023542 0.06955582 0.023473652 0.047733307 -0.056690224 -0.12164309 -0.007118972 -0.1325822 0.046737466 -0.0569907 -0.07139712 -0.022583384
love -0.004549285 -0.068794146 0.06842718 0.04025944 0.08858176 0.09834171 0.086835735 -0.04389439 0.015706869 -0.1286661 -0.0071803974 -0.02371953 0.048260562 -0.07577994 0.023326881 -0.048925687
over -0.039588913 -0.032075774 -0.05614976 0.014324817 -0.007533084 -0.043665107 -0.0049718516 0.0059197247 -0.0104564885 -0.028785678 -0.017539987 -0.020724373 -0.013655675 0.010916034 0.08660089 0.047953837
where -0.023770118 -0.01642587 -0.019237695 0.065170445 -0.019591076 -0.03499959 -0.011062556 -0.04472009 0.035401627 -0.00457871 -0.0601115 0.046386573 -0.019996447 -0.036035318 0.022185473 -0.0064090197
did -0.068736725 -0.009748839 -0.085916065 0.0056671463 -0.015505427 -0.026969744 0.0058610193 0.027874544 -0.031776324 -0.047887802 -0.03871444 0.032711145 -0.08294757 0.04678884 -0.01302312 -0.013725143
show -0.04315228 -0.050829593 -0.03466958 -0.023704257 -0.05770541 -0.022624612 -0.026129335 0.060602535 0.02330789 -0.025552938 -0.026327891 -0.071175724 0.0013514558 -0.01813585 -0.047503605 0.011628898
know 0.019911116 -0.0033085966 0.03656818 0.09056359 0.08990693 -0.0064737312 0.0418289 0.018744305 0.033626117 -0.013646177 -0.0028159136 -0.035199255 0.03691629 0.016206365 -0.003883899 -0.060442902
off -0.013151888 0.087002635 -0.023810817 -0.08515642 -0.054740272 -0.041358806 -0.022429781 -0.0075683133 -0.017566597 -0.017769678 -0.059944358 -0.00697588 0.012844575 0.07947414 0.06340747 0.092651494
ever -0.09267418 -0.013257662 -0.029382145 0.066186406 -0.016531862 -0.03278894 -0.008530844 -0.07804186 -0.025153358 0.03363582 -0.040324725 -0.00620377 0.02607878 0.09199895 0.03253276 -0.019707175
does -0.008754092 -0.007495341 0.018358985 -0.030972721 0.0034309712 -0.013971687 -0.014088294 -0.039748468 0.03023015 0.02390941 -0.042200167 0.0061490578 -0.07654611 0.0133405775 0.08470168 0.0366262
better 0.00920296 -0.012813364 -0.08727978 -0.009409059 0.030634483 -0.086011 0.020023823 0.029118184 0.042238533 0.06573095 0.010412457 0.01361019 0.03694904 0.069854595 -0.024060847 0.038722783
your -0.01249426 -0.033179183 0.038853724 0.082614884 -0.06080678 -0.08712955 -0.03470941 0.038352463 -0.10059206 0.041838758 0.06403303 0.015168352 -0.012474065 -0.046783287 -0.009591135 -0.0042676786
end -0.030685354 -0.029428111 -0.012511048 0.117284775 0.0061598425 0.007565891 -0.081781246 -0.035417575 -0.017472154 0.061965037 -0.0053771157 0.020362103 -0.025778199 -0.04017276 0.010606984 3.8795668e-05
still -0.006121627 -0.016804907 -0.027189955 0.03029898 0.04098839 0.039159786 0.07205476 0.0025268383 -0.09560898 -0.049924217 -0.015857723 -0.047017697 -0.032836843 -0.061654054 -0.059690874 -0.065236546
man 0.036595494 -0.024807611 0.0044932766 0.025837703 -0.044634014 -0.018597912 -0.0066222926 -0.0011864912 0.05358176 -0.02552483 0.031350423 -0.054460153 -0.0069379257 -0.04476359 0.025047632 0.046936426
here 0.005605392 0.06551559 0.013586896 -0.021592245 -0.031909663 -0.055308197 -0.03389573 -0.017848795 0.014310119 0.0015736368 -0.04329866 0.054638807 0.029940957 0.052608456 -0.043772984 0.06253815
these -0.005727416 -0.055877876 -0.0036631844 -0.0017695372 0.02776933 -0.03232211 -0.052337226 -0.0132078 -0.024174118 0.018945865 -0.046486914 0.018911943 -0.007370309 0.02978972 0.00066267216 -0.013262934
say 0.012949608 0.008694126 -0.005011234 -0.031238193 -0.016772654 0.018121043 0.07472246 -0.020133471 -0.056896653 -0.055027682 0.010819035 -0.02208452 0.045862183 0.01752177 0.01266735 0.03268394
scene 0.016355287 0.064651966 -0.041939307 -0.03647978 -0.034280922 -0.013078288 -0.020651173 -0.0066329297 -0.021010239 0.0009982856 0.048051506 0.019822571 -0.004636046 -0.06150619 -0.038574066 -0.017326973
while 0.06355646 0.006835542 -0.016943505 -0.03339842 -0.017515631 -0.035907082 0.026535332 0.030818831 -0.027424203 -0.0033733235 0.011854989 -0.04957741 0.0006096214 0.038604014 -0.0032036316 -0.021897884
why -0.01363749 0.08733263 -0.021736598 -0.124813765 -0.012588616 -0.05902869 0.08968836 0.026244406 0.039589066 0.0763491 -0.064363524 0.039679732 -0.093827695 0.028326888 0.07790979 0.06523834
scenes 0.05016851 0.020481097 -0.024595425 -0.016396811 0.01991952 -0.012003567 -0.044203695 -0.0027896264 -0.03692557 0.067784294 0.031414974 0.08080614 -0.09182167 -0.020389786 -0.035922997 0.034870423
go -0.031822883 -0.028759735 -0.033840403 -0.07173749 0.04401318 -0.05181501 0.02793043 -0.025015675 -0.025412861 0.03878212 0.025364215 -0.03550567 0.0007340574 0.011219611 0.017265884 -0.027771128
such -0.04587633 -0.016131973 -0.006106922 0.051730193 -0.04775248 -0.04417643 -0.06706513 -0.023806805 0.06570632 0.052778788 0.053257134 -0.02983163 -0.03274618 0.019993866 -0.013966117 0.051623356
something -0.021215575 0.07731388 0.028610313 -0.035595004 0.026262905 0.019528445 -0.009926115 0.017337782 -0.0024911568 -0.014766028 0.073247194 0.059845917 -0.021722892 0.044175107 0.04106244 0.017917858
through -0.044383984 -0.015898276 -0.03430787 -0.04836766 -0.03463693 0.029697755 0.029476209 -0.008396479 -0.012723553 0.005316139 -0.017927121 -0.0058627394 0.021795928 0.04487801 -0.045159943 -0.02082378
should -0.020611715 0.024152707 0.024385396 -0.026176795 0.0049913563 0.03092249 0.03298935 -0.03343459 0.054120004 0.03839992 -0.0062542385 -0.019104566 -0.025080163 0.03355556 0.07755573 -0.03584799
back 0.003232545 -0.020000689 -0.022833241 -0.01016029 -0.03279708 -0.009742025 0.08892486 0.025863606 0.0031239302 -0.040089775 0.02755333 -0.023691481 -0.04349708 -0.0066859317 0.040076025 0.003957379
i'm 0.047058515 0.074698865 -0.029553115 -0.015586782 -0.042537507 0.0052412855 -0.046254594 -0.0042593447 0.05533638 0.036684662 0.096758924 0.024303155 -0.013518128 -0.006295448 0.019047728 0.077096045
real -0.025428522 -0.057259634 0.06578497 -0.029409992 -0.018562242 -0.033855297 -0.07289296 0.050412387 -0.052216887 0.028600728 0.0077393604 -0.045191992 0.043110047 -0.0035439127 0.05456039 0.017075036
those 0.066361986 -0.009695768 0.04930724 0.049065255 -0.008853814 0.020299654 0.036601324 0.0016511756 -0.027005887 0.021638544 -0.012332614 -0.05562257 0.060724292 -0.01810761 -0.0033277634 -0.028571116
watching 0.040287543 0.03585689 -0.01791871 -0.04982155 -0.011747917 0.01554386 -0.0068325736 -0.0339026 -0.029901909 -0.019575007 -0.009717253 0.043766037 -0.044332184 0.061831206 -0.069837615 -0.032265566
now 0.032117594 0.020988043 0.042047363 0.014323957 0.05579633 0.0049977317 -0.004918114 0.023318917 -0.0484221 0.0029323888 0.021943755 -0.049044553 -0.03477879 -0.054467343 -0.010900278 -0.014545741
though 0.055473838 -0.080645986 0.015106456 -0.063624576 0.015450365 0.06255797 0.007704496 0.060531814 -0.038640723 -0.04956504 0.010017887 -0.06786557 0.0797336 -0.07000563 0.0013603258 -0.06386423
doesn't -0.045036346 0.02738147 -0.018672064 -0.0032097055 -0.0416759 0.012275933 -0.047512926 -0.02628447 -0.03229425 0.07805115 0.020187365 0.013940134 -0.03909513 0.0025303294 -0.018194426 0.09369562
years 0.060317274 0.027532281 0.04157636 -0.006076673 0.054494426 -0.020036096 -0.048665654 0.04585958 0.062272068 0.03510871 -0.0032630316 0.008251307 -0.03955925 -0.041342605 0.030041667 -0.04026379
old -0.00043129092 -0.0647683 -0.0045373417 -0.0069746873 0.032626603 0.036548883 0.06267545 0.065276876 -0.01714168 -0.055867672 0.024993654 0.004083495 0.011061757 -0.033235777 0.022605816 -0.042793926
thing -0.07269806 0.049143355 -0.02609625 -0.06306033 0.056950483 0.018398084 0.10286199 -0.03409422 0.10486843 0.054526903 -0.100910254 0.039975926 -0.018588943 0.015302989 0.02185367 0.039715894
actors -0.045667823 0.056626193 -0.070694506 0.007819404 0.015237174 -0.04218211 0.0134023465 -0.024955427 0.032603804 0.016400924 -0.0014650455 -0.016723739 -0.02657672 -0.046592668 0.018386586 0.0056644706
work 0.025822591 -0.025619378 0.019338744 0.046873692 -0.09936056 -0.07375754 -0.066524036 0.084777 -0.043502726 -0.019810949 0.067148656 0.061925977 0.06334078 -0.05083824 -0.07805053 0.033673298
10 0.03244567 -0.037700035 0.049807966 0.021831997 -0.07310177 -0.097960405 -0.15425576 -0.11865931 0.09003522 -0.0701678 0.21498874 0.06281691 0.03297792 -0.11415732 -0.1759024 -0.028952116
before 0.0027083002 -0.048554424 -0.034362927 0.019652722 0.029985901 0.008227119 0.015511954 0.0077480134 -0.028833175 -0.056491897 0.016182264 -0.037558082 0.003444329 0.016730672 0.038565878 0.025000144
another -0.08478581 0.057175975 -0.009973538 0.10173395 -0.004023477 -0.10682269 -0.070541024 -0.041731704 0.03193262 -0.020198675 -0.027799914 0.01899195 0.03638216 -0.0009164087 -0.058689598 0.0068794712
didn't -0.0875232 -0.00914712 -0.0043950635 0.027166786 -0.04324051 -0.06300806 -0.05801301 -0.07077102 0.029953323 0.02948455 0.00014033135 0.01195398 0.012855148 0.052477732 -0.017043587 0.004938236
new -0.022767827 -0.031173298 -0.033167686 -0.043447312 -0.023941804 -0.04328682 -0.053302366 -0.07134232 0.010195138 -0.058628656 -0.00038487694 0.05091735 -0.054185916 -0.07334885 0.07151006 0.025930317
funny 0.01938737 -0.06817798 0.063702814 0.015849268 -0.0022831464 0.030608328 0.037388675 -0.06325986 -0.0011637467 -0.048163407 0.0069930144 0.04423919 0.03428506 0.0021747088 0.021769615 -0.041661855
nothing -0.06445426 0.15729752 -0.044326346 -0.05396767 -0.0021953345 -0.082844585 -0.03176549 -0.03983869 0.07018398 0.09865285 -0.011084986 0.12173099 -0.08160994 0.056603234 0.051914778 0.10667555
actually 0.03045631 -0.0063837594 -0.039652407 -0.047808673 -0.036825083 0.058725245 0.029731266 -0.038452137 0.057896227 -0.03170407 0.0405737 -0.029403957 -0.022411155 0.058160298 -0.04268873 -0.051206753
makes 0.047547806 -0.06421332 0.040724955 0.0273109 -0.046127092 0.056796674 0.023056818 0.08384317 -0.066172145 -0.07039648 0.06249134 0.010157167 0.06820073 -0.10120581 0.04707091 0.025656682
director -0.04589113 0.035300136 -0.05086809 -0.060861226 -0.031597838 0.020696014 -0.017892165 0.02561521 0.07585652 -0.0043385574 -0.070997104 0.09119214 -0.021375792 0.051877037 -0.03655611 0.04380404
look -0.047107182 0.062853426 0.00039532277 0.0037861322 0.022196153 -0.07330387 0.037912063 0.017323302 0.05567239 0.045526724 -0.08693348 0.0074163065 -0.04201335 -0.031638898 0.06201488 0.030575283
find 0.06810967 -0.038215954 0.112181075 0.008802475 0.052427318 -0.0013644886 0.015150617 0.09566839 -0.010776328 -0.0134589365 0.014810478 -0.01218925 0.013632103 -0.04317513 -0.032889966 -0.02031043
going 0.017354712 -0.046299927 -0.033480972 -0.0624237 0.0046835733 0.05542191 -0.0014825847 -0.018506654 0.019083979 -0.03620873 0.004474993 -0.009973008 0.044690028 -0.04608579 0.07512368 -0.0014346357
few 0.024295453 0.012050182 -0.019330457 -0.04830547 0.031368494 -0.032890126 -0.012428742 0.010832638 0.057550896 -0.03344272 0.066250674 -0.00025791253 0.040853128 -0.022732086 0.0012790617 -0.004179755
same -0.036693297 0.042781368 -0.009397639 0.04457566 -0.031418394 0.0548641 0.010360161 -0.02445788 0.0030266184 0.015464477 0.03956007 -0.035533406 0.045903392 0.024313753 0.00096357433 0.06956769
part 0.054073237 -0.06431249 0.031218767 0.05449205 0.050127015 -0.0035118966 -0.03448884 -0.04146175 0.049951877 -0.00145686 -0.047373362 0.009154888 0.0062863617 0.042266347 -0.007766975 -0.019260054
again -0.051810823 -0.0035395916 -0.0182421 -0.056910448 -0.06579079 -0.061627135 -0.02466903 0.03412317 -0.037002724 0.06233743 0.0441514 -0.010539471 -0.0285243 -0.033255458 -0.057211436 0.033286028
every 0.030148147 0.04902617 0.008117981 -0.061708894 0.000763819 0.05158763 0.041615255 0.022850543 0.024017375 0.038212623 -0.020936038 -0.049418353 -0.024054423 -0.06320521 -0.050698332 -0.016591601
lot -0.03372235 0.00894013 -0.025020994 0.056101467 0.005447465 0.058194395 0.008675904 -0.017159307 0.017615456 -0.0701944 0.030236522 -0.020723164 0.055872392 -0.008436482 -0.012237481 -0.081266165
cast -0.023669839 -0.01010053 -0.019928243 0.045231048 0.008888672 0.019575495 -0.04224612 0.009863601 -0.0058444175 0.011654205 -0.041545417 0.018301869 -0.02067866 0.035466686 -0.0018068391 0.049624085
us -0.017018277 -0.031458873 -0.06763196 -0.059252974 -0.06338051 0.052161314 0.032325685 -0.018182203 -0.03858351 -0.0040195505 0.010087399 -0.07229248 -0.0044655423 0.007286929 0.009984637 -0.0804121
quite 0.05417795 -0.0026638238 0.02397862 -0.045214005 -0.022677567 0.06401593 -0.017148538 0.048827812 -0.08390045 -0.061117545 0.06490311 -0.029724233 0.02795955 -0.051940836 -0.01367832 -0.07181615
down 0.051325172 0.04241149 0.0056482567 -0.064421274 0.04765352 -0.05524002 0.058901146 0.020012543 -0.026398351 -0.022063501 -0.04820882 -0.039860748 0.059061978 -0.02299204 0.005791719 0.029646989
want -0.014139101 0.03746735 -0.025705459 0.011757752 -0.07082093 -0.035745293 -0.031128598 -0.04144292 -0.008212259 0.117448464 0.018090596 0.03106569 0.042815715 0.030857366 0.06189819 -0.013730901
world 0.028543051 -0.010833204 -0.040410362 0.062056903 0.06485725 0.09586096 0.06833876 -0.0023229723 -0.048390824 -0.07817312 0.077625655 -0.059224535 0.015889673 -0.023401266 -0.018979328 -0.03340978
things -0.0040923776 -0.065370135 0.0546723 0.06038307 0.023096424 -0.015806098 0.03875076 0.040853083 -0.0031253812 -0.016460795 0.0270204 0.019190539 0.030661322 -0.007975855 0.06060077 -0.08513535
pretty 0.03698992 -0.014927754 -0.043902744 -0.05331371 -0.10052981 -0.062423073 -0.014853402 -0.02048163 0.08606164 0.032052733 -0.042577118 -0.007246101 -0.008098143 0.039540272 -0.023499291 0.027166177
young 0.068198174 -0.050325464 0.07028964 -0.011372173 0.010807626 -0.0010600302 -0.02433973 0.04591681 0.000843605 -0.013757043 -0.014547408 -0.05957528 0.0016679852 -0.011312235 0.055069022 0.027435962
seems 0.00037257758 -0.03952731 0.025487725 0.017529182 -0.07141251 -0.07885448 -0.06974011 -0.06215055 0.029466484 0.048511796 -0.046322037 0.06653019 -0.010493835 0.0039783777 0.030143606 0.023741428
around 0.023683643 -0.06880698 0.040537857 0.081588745 0.038892675 0.0027844291 0.010379032 -0.02476369 0.034466006 -0.011824308 0.022488996 -0.054300334 0.034935094 -0.015520839 0.04629271 0.0045357486
got 0.04812355 -0.02942946 0.017276663 -0.008805637 0.01140454 0.043533325 0.04035409 0.016609231 0.006673375 0.010317226 -0.0062447465 -0.031663373 0.018739428 0.0005899976 -0.06837153 -0.02349822
horror -0.013617935 0.020950645 -0.019660614 -0.06581043 0.03222176 -0.005439111 -0.033296607 -0.043055512 0.04004037 -0.022887591 0.097743 0.019734032 -0.04524351 0.046888057 -0.025342815 -0.04844816
however -0.05920311 0.042883586 -2.8475997e-05 0.018829143 0.0023888112 0.002890627 0.007731667 -0.032918707 -0.040295675 0.01355558 0.017627737 -0.008213188 -0.0028448217 0.09850177 0.0031861453 -0.038893048
can't -0.032049023 0.004307729 0.05584674 0.03081513 -0.0014871721 -0.05828967 0.070831716 -0.02624459 0.03963378 0.043588333 0.0614924 0.04676922 -0.014146174 -0.0045455177 -0.01711486 0.0038756828
fact -0.047462355 -0.04582543 0.004508367 0.04959827 0.0063338713 0.002600899 0.013885024 0.030744638 -0.06474237 -0.034572165 -0.0075577362 0.057293624 0.049547564 -0.006315701 0.03953742 -0.0066429
take 0.06733548 -0.078067735 -0.008822068 0.026767842 0.07916119 0.04700652 0.008723887 0.05405601 -0.054889746 -0.011379224 -0.0124572655 -0.046210665 0.07484171 -0.040777266 -0.048795156 -0.027643457
big -0.0048800805 -0.02189765 -0.045599096 -0.028847413 0.0032130263 0.01873533 -0.011553478 -0.0069797128 0.0021295468 0.02250788 -0.004333093 -0.0048312917 0.02064979 0.013822664 -0.00735876 0.02132483
enough -0.06413327 -0.009329351 -0.08894909 -0.004659474 -0.039441742 -0.10352126 -0.043219578 0.0059008263 0.0065641203 0.013130926 0.019128388 0.061073687 -0.051192593 0.078544155 0.068082355 0.05735633
long -0.03476718 0.04062941 0.028153198 -0.07167583 -0.06470934 -0.038692553 -0.049804825 -0.045196608 0.059973333 -0.008938724 -0.010807017 0.008726621 0.023449691 0.080776714 0.0034512482 -0.031082874
thought 0.05851923 -0.030129697 -0.0402519 0.049613316 -0.020813735 0.015568687 0.045723505 -0.00020200391 -0.08411866 -0.006649176 -0.03099587 -0.06214086 0.014965734 0.039044123 -0.04690926 -0.032990463
that's -0.034882482 -0.05083529 -0.03806565 -0.053000614 0.0073630014 -0.0053196163 -0.05530012 -0.013683811 0.04588474 -0.016208088 -0.029515224 0.0018703545 0.0027494556 0.013494028 0.032240126 0.017586572
both 0.070556134 -0.042296838 0.12953398 0.06324042 0.010574269 -0.01469449 0.09785528 0.064722404 0.036927875 -0.121404216 0.08750365 0.0014867161 0.056955047 -0.14421791 -0.011534911 -0.09519392
between -0.01373374 -0.07781247 -0.020791622 -0.06404993 -0.008376452 -0.035885613 0.025150249 0.05610451 0.02057162 0.0056091156 -0.06268409 0.027900461 -0.027874574 -0.043182362 0.013892832 -0.011026677
series 0.030386362 0.013622214 0.04854899 0.00925086 -0.015108223 -0.055280346 -0.025701031 0.06845305 0.0054797633 -0.02773413 0.051523753 -0.10837117 -0.04723158 -0.0992487 0.016639998 -0.016021485
give 0.015654523 0.019674605 0.009950585 0.011623819 0.0014938533 0.00021701166 0.018834505 0.031370565 -0.00037269053 -0.025593616 0.002696562 0.005207949 -0.016189668 -0.028017664 -0.08372041 -0.018063953
may 0.027320452 -0.03524717 0.025597064 0.07048635 0.07408802 0.070216544 0.00698516 0.0669708 -0.02097119 -0.06257445 0.06486079 -0.06677961 0.0070618503 -0.03129795 -0.03958402 -0.0487835
original 0.031512965 0.09040525 -0.080418356 -0.024235252 -0.029295797 -0.0935032 0.04264006 -0.044268593 0.07970568 0.043837592 -0.035233136 0.03813866 -0.031945106 0.030328235 -0.005945898 0.024991421
own 0.027451886 -0.023232909 0.036713067 0.015990103 -0.0116950525 0.06398017 -0.019415269 0.03239494 -0.0662014 -0.044225413 0.044751547 -0.007971971 0.027946021 -0.060856435 -0.03206823 0.004822563
action 0.06890614 -0.039078474 0.035150476 0.015958494 -0.06812582 -0.021671763 -0.035486802 0.053302333 0.02214077 0.021268597 0.043678258 0.0033056112 -0.0036401805 -0.062691964 0.055631664 0.00050405157
i've 0.022541372 -0.046462048 0.02990048 0.002019681 -0.017238425 -0.006011761 0.025694214 0.04226858 -0.06342105 -0.014364297 0.027626844 0.03305327 -0.040252432 -0.055658266 -0.11174298 0.009179107
right 0.027454738 -0.08043131 0.065800205 -0.017404828 0.0038196347 0.0005395734 0.03578721 -0.0049082804 -0.059169512 -0.085390575 0.049588267 -0.060796093 -0.0011905644 -0.073772125 0.00820089 0.00414387
without 0.049587894 -0.055885017 0.0024816878 -0.03752717 0.049743988 -0.010978253 0.03789528 0.05634055 0.030804299 -0.050148875 -0.030961817 -0.034607742 0.057258632 -0.037612386 0.0038585663 -0.00822523
always 0.034907978 -0.006550026 -0.0006094787 -0.060234673 -0.0017345987 -0.0066266484 -0.0069139632 0.0023480514 0.04938336 -0.04528884 -0.03876278 -0.0129341185 0.011285039 -0.04547731 0.0481744 -0.040026613
times 0.040530358 -0.012767071 0.08713994 0.02565707 0.008535973 0.051150665 0.0019578387 -0.008852925 -0.01602105 -0.04686658 -0.012446872 -0.010895077 0.014366355 0.005323922 -0.018263586 -0.04634979
comedy 0.001855804 -0.023804149 0.02243874 -0.013695406 -0.027063211 -0.0665054 -0.04057671 -0.0094471555 -0.008187629 -0.036664795 0.0039770957 -0.009292004 0.038392752 0.041747287 -0.058781195 0.01913266
point -0.087120876 0.005236431 -0.036669 -0.0134441955 -0.05923443 -0.020770177 0.01826579 0.017859735 0.02199912 -0.003639067 0.03283518 0.023919977 -0.055154588 0.04833494 -0.00643298 0.024086297
gets 0.032014135 -0.007027668 0.03250937 -0.02271121 0.026590236 0.021261746 0.0027772442 0.006307389 0.026296183 0.050393905 -0.01311835 -0.054570004 -0.009739804 -0.018344108 0.022709502 0.01251748
must 0.112034045 -0.06058063 -0.016030505 -0.040065516 -0.0077705323 0.016939122 -0.02977312 0.037395883 -0.026409667 0.005965429 0.08386225 -0.074884206 0.0041446825 -0.05492322 -0.08868942 -0.025072472
come -0.013914288 -0.039279804 0.00074387755 0.004078961 -0.027073292 -0.029129492 0.029157976 0.032753713 -0.05878383 0.06437988 -0.0382929 0.040202457 0.0215299 -0.027675934 0.075582184 -0.011501988
role 0.059204213 0.0075187464 -0.042712007 -0.0105869165 -0.053440485 -0.03992108 -0.017611144 0.03540496 -0.025922768 0.028593823 0.024721522 -0.04403245 -0.070070595 -0.02287332 -0.026896046 -0.018068904
isn't 0.0023566089 0.028254079 -0.00763821 -0.006024886 -0.05197616 -0.0070247366 0.041725628 0.0103141675 -0.03769284 0.051507663 0.02350837 1.5972073e-05 0.037643548 0.011912542 -0.030599825 -0.038245827
saw -0.031940885 0.0002871775 -0.040128544 0.035385955 0.0046761525 0.027582124 0.042452984 0.020990767 -0.02102749 -0.02992435 -0.041696776 0.0076665054 -0.0099559175 0.043896418 0.05483414 -0.020716287
almost -0.040239308 0.0038194172 -0.013941831 0.04101608 -0.0077509945 0.051732488 -0.03311039 -0.024707086 -0.027187847 0.00031332608 -0.077713095 -0.011094548 0.042721055 0.046882562 -0.0012882643 -0.00471129
interesting 0.021667102 0.059237763 0.03178371 0.041404877 -0.0652128 0.047117606 -0.052330475 -0.0027792742 0.061110985 0.020468593 0.010837266 -0.0169863 -0.036127068 0.08027154 -0.04984994 0.05722741
least -0.036048368 0.0649329 -0.024776388 -0.031893168 -0.023213739 -0.0117316665 -0.09868795 -0.082516685 0.07667191 -0.035498362 0.056287047 0.06958287 0.05649789 0.02060293 0.004346874 0.072017126
family 0.004980215 -0.04742244 0.042437293 -0.0076644886 0.009245973 -0.015877582 0.064920075 0.031391017 -0.019568076 -0.07052394 -0.055742607 -0.08975269 0.021853888 -0.09875863 -0.065846816 -0.04967292
done 0.03267732 -0.01804186 -0.02411354 0.08745991 -0.00093200005 -0.05075209 -0.060815804 0.0043665166 -0.047113962 0.019346856 -0.07232679 0.04932465 0.04788721 -0.03893864 -0.05607869 0.014254303
there's -0.008609047 -0.005240772 -0.008601748 0.026702324 -0.057903983 0.011893714 -0.03210017 -0.01664129 0.018704308 0.008383495 0.04487934 0.038803786 -0.04825971 0.027902825 -0.017140185 0.08063147
whole -0.03448104 0.08571493 -0.019082924 0.013859541 -0.03549609 0.01729518 -0.036871098 -0.10073602 0.06395001 0.09846805 -0.09473177 0.03189006 0.0017593538 -0.0017416104 0.052604 0.048278585
bit 0.06018233 -0.10024591 -0.007832507 0.010566978 0.05384061 0.038361896 -0.007718496 0.06685027 0.065158136 -0.045497537 0.026306892 -0.063178726 0.07145398 0.007890288 0.0007524475 -0.03248398
music 0.06332203 -0.00075313915 0.04434049 0.012915713 0.04181702 0.075584844 0.04287114 0.08124301 0.03965188 -0.023573827 0.073695384 -0.007466969 -0.042236134 -0.06943988 -0.010483518 0.0026175943
script -0.08650931 0.063963525 0.061079703 -0.07394221 -0.0697395 0.040882275 -0.09536157 -0.110868484 0.038660876 0.0894889 -0.02353032 0.05279351 -0.12610494 0.08676623 0.022665424 0.09194523
far -0.0187503 0.0383296 -0.036294788 -0.0315931 0.023386488 -0.011093081 -0.04962654 -0.028480373 0.03605592 0.056553517 0.08202431 0.009960865 -0.044860855 0.004644377 -0.008935033 0.05727378
making -0.03921712 0.054695897 -0.0038039007 0.09958687 0.02195109 -0.12331575 -0.09838548 -0.07080056 0.08176659 0.060780242 0.088841386 0.06140377 0.018878426 0.052533876 -0.046437748 0.047950108
guy -0.008698261 -0.007603117 -0.021632843 -0.0028719131 -0.045109566 0.06176691 0.018043458 0.033948198 -0.003025077 0.006555953 0.012426683 -0.038914982 0.039882734 -0.0036363923 0.021246508 0.009289689
anything -0.015932044 0.10221322 -0.061941657 -0.06090321 -0.05322522 -0.03614227 -0.032067407 -0.04501234 0.020622503 -0.015384273 -0.047517043 0.04129449 -0.03731792 -0.00973956 -0.0052829953 0.031198077
minutes 0.018956779 0.09688966 -0.06125447 -0.000120413315 0.056394942 -0.10516603 0.08302954 -0.020849943 0.053657856 0.07338069 -0.057905238 0.0669403 -0.031369813 0.035317276 0.09447264 0.09657893
feel 0.00067422877 -0.09201561 0.040929254 -0.059870843 -0.006611745 -0.010994052 -0.0024332497 0.058341302 0.011842447 -0.00225579 0.044213988 -0.097139366 0.044643193 -0.04841456 -0.039163303 -0.027705979
last 0.012964312 -0.06842171 -0.005817474 0.046851084 0.07185474 0.038504932 0.050106585 0.0631629 0.0095424205 -0.0646464 0.06702648 -0.011919839 0.024396045 -0.037064526 0.01831125 -0.038831223
since 0.11491066 -0.023859726 0.0039609503 -0.04288547 0.09883291 0.04944485 0.0149791865 0.07784256 -0.034654472 0.0023755168 0.011855169 -0.071221754 -0.020995185 -0.020237787 -0.04645868 -0.058092635
might -0.046436325 0.071606055 -0.056381874 0.010690638 -0.03011486 -0.056977633 0.040626563 -0.009739314 0.11318689 0.058885224 -0.056238197 0.031088596 -0.016705966 0.114174925 0.07541763 0.07709251
performance -0.0026405347 -0.08011216 0.0035761169 0.052741684 0.03929478 0.06432642 0.017803324 -0.084260024 0.038541254 -0.039836783 -0.066720985 -0.09074751 -0.014420337 -0.021394165 -0.012544313 0.017997624
he's -0.015597407 0.0073169745 -0.029686647 0.018907377 -0.016636515 0.038261455 0.012249066 0.014418055 0.0037096853 0.020049952 -0.045751244 -0.010023585 -0.04042187 0.012136374 -0.0300752 -0.02970686
2 0.07162548 0.0070100483 0.06777279 -0.038678654 0.060269024 0.011381337 0.02754598 0.02384845 -0.020337813 0.06784332 -0.005266746 0.037484013 -0.06635154 0.054175366 0.023735473 -0.0045345454
probably 0.022310033 0.008029475 0.016731191 0.059851732 0.023689305 0.07448381 0.01619399 0.036382277 -0.020148208 -0.04370279 -0.029875318 -0.011994836 -0.0041423496 -0.06894731 0.013515059 0.01767641
kind -0.023669126 0.052368358 0.026451426 0.0044036745 0.0732341 -0.00654288 -0.018720137 0.03873349 -0.030267745 -0.04842843 0.016315706 0.032524236 -0.0072846753 0.0020244597 0.050310925 0.041715905
am 0.0131581295 -0.0046869935 -0.047914404 0.0034868421 0.006972858 -0.091823086 0.005762618 -0.053010467 0.011079264 -0.0026172353 -0.030480154 0.028333299 -0.01390104 0.05645283 -0.015542859 -0.035026263
away 0.007439972 -0.015354598 -0.035742868 -0.03663749 0.05334 0.0036372244 -0.008593815 0.031643286 0.013776808 0.009189652 -0.0041037817 -0.0013431312 -0.0148791745 -0.023909051 0.0421471 -0.0028474664
yet 0.01060493 0.013631024 -0.041374195 -0.011767076 -0.028590504 0.009587358 0.028055439 0.05590229 -0.03443027 -0.07791601 0.03703147 -0.021650989 -0.00278136 0.0006358701 0.0434875 0.011274251
rather 0.087144814 -0.07386862 0.034964126 0.011143151 0.040636025 0.040475756 0.0027946937 0.056743875 0.0011195398 0.015277426 0.013239554 0.01046401 0.023387672 -0.022390647 0.020271176 -0.0017413169
tv -0.023267651 0.02617996 0.012137238 0.04775089 -0.033550855 0.035757165 0.008283755 0.010596096 0.02655 -0.005148726 0.016126342 -0.024899311 -0.02547837 -0.05486886 0.0076999697 -0.03498352
worst -0.07202426 0.13185662 -0.10104431 -0.12859446 0.0022493051 -0.19488625 -0.08459295 -0.14595565 0.15309785 0.09859014 -0.13567129 0.16895492 -0.1765395 0.12933147 0.13549508 -0.011753729
girl -0.04897464 -0.013112997 -0.079873405 -0.0050290567 0.039307587 -0.00762094 0.034886584 -0.05650365 -0.0052599343 0.056544475 -0.0009795985 0.016422646 -0.044735357 0.003565025 0.018438146 -0.00069850206
day 0.01951707 -0.0034312694 0.0063302554 0.015432999 0.063521795 -0.005604618 0.009977467 0.049863067 -0.026192566 -0.031514626 0.023544827 -0.071491264 0.025272882 -0.05770205 0.043614317 0.018708725
sure -0.03939032 -0.009486754 -0.008862806 0.04111629 0.041911956 -0.036178682 -0.10422597 -0.00784153 -0.040887997 0.0011036918 -0.028785778 0.008493296 0.016642904 0.058953755 0.027067991 0.028050678
fun 0.02687229 -0.12577623 0.10461899 0.058834232 -0.019446436 0.032311417 0.05314638 0.01529741 -0.08168241 -0.03302547 0.04234266 -0.11513186 0.022602964 -0.10310832 -0.028046405 -0.06370845
hard 0.04269078 0.00055758207 0.04832641 0.054851074 -0.021886228 -0.061017577 -0.030930422 -0.01909995 -0.023115797 -0.023165228 -0.03840209 0.026929991 -0.051215507 0.038017802 -0.009476188 -0.03317534
woman 0.014218489 0.01486087 0.029040227 -0.04052419 -0.0078048212 -0.010034423 -0.03764329 0.011155265 0.05420219 0.013387679 0.01814305 0.015615654 0.05281545 0.016903123 0.006175174 0.050647233
played 0.0069793444 -0.005500959 0.046465173 0.009680439 0.029784733 -0.03457317 -0.028849615 0.047817588 0.009301953 0.036013477 0.028576234 -0.014549759 -0.020578675 -0.06475196 -0.002155358 0.039117735
each 0.02252593 -0.027693793 0.014382684 0.015312905 0.090160936 0.10889409 -0.00862178 0.030203797 -0.022310039 -0.021939656 -0.001242436 -0.11784419 0.0025196674 -0.03145495 -0.08304214 -0.05375423
found 0.015638279 0.0012036596 -0.035466433 0.037277255 0.018295225 0.04734647 0.051665273 -0.04021207 -0.039626684 -0.024011467 -0.04329565 -0.04701612 0.015593742 0.0078862915 -0.04384274 0.051398486
anyone -0.035985027 -0.004249117 0.046965033 -0.013063666 0.04599523 0.0018526226 -0.05923123 0.00304069 -0.08220298 0.029263563 -0.0039284304 0.0027029074 0.04279463 0.035123136 -0.0006703097 -0.0076821586
having 0.058701478 -0.045204006 0.056681283 0.103709154 0.060165405 -0.0034034722 0.083550625 0.04793118 -0.008034456 -0.010625128 0.040357187 -0.028817631 0.007822548 -0.050481305 -0.05553259 -0.03370365
although 0.017599298 -0.004689492 -0.014988688 0.033312306 -0.023463812 -0.015070961 0.017513609 0.068673134 0.00962881 0.01844813 -0.025911093 -0.0069535654 0.030372137 -0.042870443 -0.012468576 0.029453227
especially 0.06027742 -0.05331096 0.06716846 0.05924801 0.029580463 0.013397618 0.07050703 0.07084846 -0.0116800275 -0.09901006 -0.04323293 -0.062218804 0.06322879 -0.08973516 -0.100101955 -0.10814032
our 0.021393808 -0.0893757 0.012514761 0.029863684 0.058248837 0.07252169 -0.010827578 0.044786863 -0.01647953 -0.05450909 -0.017299656 0.0122495275 -0.03501179 -0.018319024 0.0050099157 -0.015457194
believe -0.04034304 0.004274629 -0.015190995 0.047908835 0.03670542 0.00981064 0.04811578 0.010053625 0.044353448 -0.0498046 0.095967926 0.005942787 -0.0429936 0.06135679 -0.045845237 0.04308529
course 0.06075844 0.00037454683 0.058696415 -0.049297918 0.07836005 -0.04395677 0.06951393 0.010532657 0.04640741 -0.03473173 -0.0057016094 0.011776764 0.0016780642 -0.06915625 -0.061042868 -0.02928187
comes 0.09591436 -0.0031524815 0.0034767806 0.044775385 0.035441227 0.034176648 -0.054992236 0.0524514 0.0052785426 -0.03771969 -0.0019597895 -0.05872687 0.010036386 -0.0029452108 0.023951352 -0.061888896
looking 0.008275058 -0.010978301 -0.038448315 0.032475498 -0.024348067 0.026125886 -0.040804017 -0.042121686 -0.014985099 0.047562584 -0.0019866345 -0.022937734 -0.040299635 0.04057257 0.0068913694 -0.0136581855
screen 0.02068039 -0.069181636 0.029202847 0.0051239645 0.009614503 0.055281166 0.048935357 0.038383015 0.007822974 -0.0062223994 0.0314575 -0.028895663 0.005726436 -0.023116307 -0.0020321119 -0.04326141
trying -0.02638357 0.05790837 0.02221331 -0.06768458 -0.060942076 0.0026844246 -0.060444776 -0.006419799 -0.015015569 0.04054461 0.015786758 0.050078075 -0.018670358 0.011971344 0.058810193 0.069776736
set -0.029745128 -0.014584059 -0.014416237 0.02266795 0.036227673 -0.02005538 -0.012260318 -0.04304434 -0.046848353 0.017416853 -0.11956485 0.0024537537 -0.03208707 0.051785167 0.03326011 -0.00015552965
goes -0.007787764 -0.018107897 0.014629211 -0.06395438 -0.014573604 0.02752794 0.027618703 -0.05723264 -0.002691612 -0.0028471926 -0.01032967 -0.0052827005 -0.036196917 0.067537636 0.009195329 0.030415611
looks -0.07130139 0.047927942 0.0015179389 0.016996793 -0.029312603 -0.061171178 -0.027926447 -0.07072305 0.044013392 0.04792835 -0.044523783 0.095433265 -0.07334986 0.10885471 0.037482996 0.0016707362
place -0.06345382 0.02580871 -0.020400962 -0.05743596 -0.038016133 -0.055811983 -0.0045110346 -0.066183224 0.060315296 0.018055897 0.022646537 0.04190999 0.00831617 0.07647815 -0.04824474 -0.021382974
book -0.05191267 0.09518007 -0.101272464 0.06344867 -0.08028219 -0.042698618 -0.023018582 -0.01868964 0.10337773 -0.016068496 0.021669887 0.01680743 -0.016863856 0.050117046 0.05672358 0.08044125
different 0.001030436 -0.004066256 -0.021884207 0.013130591 0.06278975 0.038036034 0.05687303 0.006106507 -0.017570486 -0.06579365 -0.00041568818 0.005605885 0.016618324 -0.093853906 0.019555923 0.014008182
put 0.017457252 0.04215899 -0.052027058 0.014855286 0.013103152 0.009081157 0.06726312 -0.018509427 0.029993078 -0.02470926 -0.0046409783 -0.019593576 -0.024186324 0.035057385 -0.012675248 0.065922365
ending 0.013064754 0.00041407096 0.0039199716 -0.013401817 -0.012462811 -0.029841388 -0.058288213 0.021238716 -0.030210191 -0.057162203 -0.013943729 0.08655255 -0.0003106576 0.016875144 0.061619557 0.032774944
money -0.0014404205 0.088796556 -0.01830221 -0.03815617 -0.09675007 -0.023379441 -0.017584192 -0.046080004 0.024885535 0.074782565 -0.08321643 0.003544267 0.001569305 -0.014263346 0.062629744 0.009193544
maybe -0.10290157 0.014087025 -0.011492872 -0.030606354 -0.023585847 -0.015634075 -0.08982201 0.0034978548 -0.027815111 0.050519 -0.037983228 0.025270818 0.04573649 0.030253684 0.013198501 0.080506235
once 0.023176212 -0.055841345 0.073234625 0.008371368 0.01197241 0.08827247 0.03349086 0.013285221 0.044746798 -0.048848655 0.044989023 -0.06735195 -0.026327647 -0.039047163 -0.001549843 -0.06599685
sense -0.05625455 -0.024532627 0.0850899 0.03808384 -0.004686996 0.035017867 -0.038340043 -0.08966389 0.043869253 -0.007419573 0.05174902 0.08175429 0.053607997 0.048919294 -0.033208955 -0.004899444
reason -0.024251804 -0.013542462 -0.045998577 0.029697554 0.0048205727 -0.070266984 -0.035076182 -0.020290462 0.055924352 0.014512417 -0.029396953 0.024343982 0.049471803 0.078397326 -0.026638934 -0.051025104
true 0.024867358 -0.05924164 0.026218008 0.101169966 0.028771829 0.09627182 0.08688805 0.035188027 -0.06286967 -0.10281524 -0.012895902 -0.07021515 0.08784084 -0.038293816 -0.02349796 -0.04937411
actor -0.10540885 0.048339225 -0.02315926 0.06030609 -0.055533946 -0.06656684 -0.09216662 -0.08896205 0.09423488 -0.018099481 0.025401982 0.10698663 -0.03809635 0.0058207223 0.008495924 0.04524498
everything -0.0041143075 -0.051081225 0.06167306 -0.05682094 0.05111042 0.032052495 0.010711275 0.042218648 -0.016177626 0.00826944 -0.00950243 0.02740989 -0.021162257 -0.02454139 0.064988926 -0.062407695
wasn't -0.027466549 0.08063954 -0.013908992 -0.02656546 0.021236429 -0.053747598 0.07720975 0.007627616 0.017167782 -0.0019517569 -0.07149948 0.047028877 -0.039876796 0.025394341 0.031194573 -0.064715184
shows 0.07454956 -0.08525546 0.02477926 0.009067498 0.03556279 0.09177957 0.07203631 0.10612248 -0.0046236855 -0.04575933 0.022982938 -0.10692763 0.051821068 -0.09989613 -0.0133763645 -0.047294907
dvd -0.025795653 -0.017994808 0.033649087 -0.08021605 0.040997393 0.05729972 0.010891918 0.023290584 -0.0460476 -0.040381894 -0.053412184 -0.027137415 0.0532938 -0.0396249 -0.055387832 -0.01756375
three -0.07967087 0.055997927 0.005325867 0.013431427 -0.037608072 -0.09065841 -0.012955672 -0.017224232 0.09685872 0.02840853 -0.01809796 0.08565917 -0.04675984 0.014161452 0.065576844 0.042985614
worth 0.06880126 -0.04466983 0.016954755 -0.0024168284 0.088099204 0.015908245 -0.109597564 0.038994297 -0.055439636 -0.08562493 0.029415635 -0.062178917 0.08973821 -0.10983985 -0.019806169 -0.05810958
year -0.046345234 -0.007474368 -0.07048285 0.07255568 0.020593097 0.038787793 0.027417634 -0.08219846 -0.01250306 0.012990598 -0.07958759 0.03714828 0.018393364 -0.060269862 0.019362655 0.023070551
job 0.026416454 -0.033491313 0.0059144613 0.0038056972 -0.0011597039 0.087679714 -0.033706658 0.037273366 -0.050564487 -0.082775116 0.025335303 0.007126934 0.10026069 -0.06717561 -0.011302284 -0.079860754
main 0.034524567 0.055481113 -0.034164637 0.019485578 -0.014834855 -0.0011937624 0.0575353 0.016511407 0.030423444 0.06287217 -0.06250124 -0.023887096 -0.043946214 0.0081941765 0.027831808 0.039520152
someone -0.103010595 0.05833552 -0.024755808 0.017470028 -0.055523776 -0.022106105 -0.09172186 -0.05126257 0.105497524 0.009442766 -0.029042678 0.14279808 -0.061183557 0.12553841 0.08332656 0.06276482
together 0.12719174 -0.01517356 0.014344697 0.06038482 0.07133721 0.0020509919 0.052775234 0.07647347 -0.065643325 -0.05220497 0.095238835 -0.12045324 0.0073762084 -0.09118144 -0.054347906 -0.0830949
watched -0.017736776 0.03256226 -0.052396987 -0.014319782 -0.044204388 -0.06734661 -0.022887236 -0.08953745 0.02666796 0.07734227 -0.08274987 0.07986944 -0.013786257 -0.0053010136 0.08109556 0.031017832
play 0.074681304 -0.048351828 0.08105244 0.01845752 0.005125805 0.0071670916 0.019208401 0.051822886 -0.036218017 -0.047627397 0.009346818 -0.076265834 0.002584603 -0.031594507 -0.041693214 -0.083129995
american -0.010920918 -0.025733147 0.07645197 0.078360245 0.006240891 -0.013216284 0.033425044 0.08460767 -0.024942096 -0.016115306 0.0220494 -0.029060612 0.04613048 -0.06879544 0.02255224 -0.034823302
plays -0.07356606 -0.016352842 -0.03525731 -0.03102805 -0.0066903643 0.038653128 0.0016434185 -0.017766349 0.10838595 0.01065268 -0.033205386 0.028261056 -0.0141944075 -0.025608715 0.050483678 0.055404328
1 -0.088227324 0.11949746 -0.05429719 -0.082767904 -0.10940874 -0.044050135 -0.08048094 -0.12959982 0.05108925 0.08842585 -0.097000785 0.066449255 -0.048092034 0.05499469 0.06205017 0.0019963589
said -0.093588404 0.07939093 0.027505465 -0.047860246 -0.02750458 -0.06521244 -0.027127735 -0.049992573 0.05695704 0.026195452 -0.055876918 0.08609986 -0.06039332 0.022650681 0.06989838 0.04283865
effects -0.05556292 0.060145617 -0.03805686 0.045394003 -0.05607213 -0.048281863 -0.024737906 0.017433936 0.019068226 -0.016252844 -0.036425106 -0.04764787 0.015631692 0.08043288 0.029071426 -0.023582706
later 0.029290156 -0.051739533 -0.008944243 0.04790728 0.064622015 -0.0074181836 -0.046873093 0.00045394414 0.095048055 -0.016944513 -0.007512556 -0.04122104 0.0077023082 -0.053936657 -0.048754875 0.010203942
takes 0.0053772465 -0.0067046345 0.052246574 -0.05928784 -0.0347034 -0.043585658 -0.030727582 -0.067415535 -0.018067937 -0.0726993 0.0076060705 -0.04533332 0.035191927 -0.02181981 -0.0023120174 -0.02387106
instead -0.025072118 0.11666098 -0.03960697 -0.09912348 -0.0875882 0.002064954 0.030083802 -0.07007102 -0.017665798 0.11631582 -0.059627272 0.057756416 0.0017518534 0.036417197 0.018133514 0.020085191
seem -0.0035389473 0.024381457 -0.04856277 -0.052671723 0.014678319 -0.039824698 0.00395154 -0.070984565 0.056713518 0.087626725 0.014820978 0.00826381 0.010856905 0.0047859973 0.024368363 0.05133432
beautiful -0.060408056 -0.04509239 -0.033866994 0.044969738 0.021996794 0.022893604 0.0104683805 -0.014690717 -0.05022304 0.0024164678 0.020777754 -0.09004712 0.008175527 0.023285152 -0.0125056375 0.021604424
john -0.031321708 -0.037452538 -0.047019493 -0.040382825 0.013009641 -0.04728622 -0.012539496 0.0023943884 -0.0021746827 0.009217448 -0.021828955 0.07931093 -0.083873026 0.0007499326 0.0702664 0.024239525
himself 0.04444792 0.027937597 -0.021565817 -0.059431434 -0.0712425 -0.008020562 -0.0050377236 -0.03506391 0.044409085 -0.002402641 0.021952257 0.023419414 0.01715236 -0.04806054 0.021818701 0.019434147
version 0.051163286 0.013081624 0.09337758 -0.066531874 -0.04288225 -0.02520322 0.021230001 0.05045528 -0.014550697 -0.03723328 0.09158081 -0.050746284 -0.0038994544 -0.093093 -0.014369567 0.0017092908
audience 0.0046074055 0.004309188 -0.056500956 0.04268137 -0.06687807 0.024866395 -0.02147416 -0.052766502 -0.008971173 0.08002222 0.011567233 0.01150192 0.019376682 0.021140812 0.07006837 0.020826133
high 0.07650567 -0.03752727 0.06938153 0.082137436 -0.033553183 -0.008890307 0.04326151 -0.04776315 0.01460018 -0.053691424 0.0032199512 -0.074924715 0.040277135 -0.008707474 -0.044108216 -0.012745475
house -0.014377651 -0.026255071 -0.02205921 0.08086893 0.051083826 0.026689252 0.005742811 0.0008231367 0.023623759 0.052277386 -0.0039988332 -0.016423305 0.017384855 -0.053245276 0.04030213 -0.02064839
night -0.015207786 -0.034716886 -0.0015188259 0.027604982 0.04940228 0.03781102 -0.037281886 0.015734302 -0.065733865 -0.06830848 -0.0009162133 -0.034531057 0.034307532 0.0028042844 0.006710003 0.02111579
during 0.011660733 -0.0004524983 0.04055912 0.1109436 0.049500983 -0.019415466 0.06265501 0.011179791 -0.017738784 -0.036528025 0.019307865 -0.041936863 -0.044938166 0.05530862 -0.051753458 -0.029591274
everyone 0.05823636 -0.0013685 0.05347183 0.080367096 -0.0159261 -0.009532721 0.0650258 0.06255455 -0.015937114 -0.035891443 0.0826032 -0.06569604 0.0030885604 -0.09414123 0.023290867 -0.07519041
left -0.006937657 0.08387827 -0.08401218 -0.077020854 -0.13906926 -0.017882673 -0.01802241 -0.03321052 0.041702896 0.016403897 -0.088301465 0.034450956 -0.10679876 0.007373619 0.022391262 0.018963514
special 0.00668693 -0.106471896 0.04105259 0.069058664 -0.023115776 -0.018456895 0.021251444 -0.074408606 -0.013245982 -0.047999565 0.086261 -0.033470795 0.09556599 -0.04867244 -0.030250683 -0.047835946
seeing 0.004671166 -0.06833454 0.03942641 -0.006612362 0.0024750028 0.08611758 0.02573773 -0.01981219 0.047839202 -0.023291977 0.012039734 0.02380489 0.007227436 0.018340183 0.04090104 -0.018228218
half 0.031875253 0.058995143 -0.09540301 0.018870773 0.007971767 -0.0881325 0.020931523 -0.016956665 0.044390976 0.07784169 -0.056502957 0.02382377 -0.036459684 -0.0031238282 0.015268818 0.06556998
excellent 0.09907691 -0.13539702 0.10853795 -0.018358424 0.11307331 0.13341728 0.09220969 0.10841512 -0.07997536 -0.110366024 0.13561656 -0.12602535 0.11680063 -0.14294122 -0.096935764 -0.13589431
wife 0.071091644 0.029983286 0.054156046 0.031072123 -0.022677608 0.021854239 0.044835787 0.075861074 -0.038824514 -0.035019785 -0.021111237 -8.547832e-05 -0.018740507 -0.019645149 -0.02824803 0.007341311
star -0.05485102 -0.0057643265 -0.06553512 0.014958719 -0.012207463 -0.034113996 -0.014847874 0.011978581 -0.050322387 -0.019389024 0.01955062 -0.04339125 9.984285e-05 0.006842063 -0.025407232 0.021060182
shot 0.042666517 -0.028083768 0.041962728 -0.030987429 -0.023420418 -0.008309452 0.058236036 0.00457589 -0.02382326 -0.018347144 0.011689053 0.022448067 0.02530911 0.025234967 -0.08022899 0.004143119
war 0.033040244 -0.048756536 -0.010545877 0.03405099 0.06836451 0.05642438 0.06759043 -0.026372856 0.01973554 -0.014005348 -0.0007204651 -0.065446384 -0.025771957 -0.032863237 -0.017571688 0.01010048
idea -0.030905668 0.08934703 -0.10402877 -0.060969625 -0.029412748 -0.0437842 -0.009285827 -0.05750495 0.09592979 0.0077132164 -0.051271264 0.033775214 -0.046223078 0.07765922 -0.01489113 -0.009818178
nice 0.03538583 -0.01333627 0.05616474 0.05740737 0.05991659 0.009494261 0.03417482 0.033452008 0.015269414 -0.021760197 0.005284496 -0.053603284 0.0015591382 -0.044541247 0.035365004 -0.042865828
black 0.03667525 0.063672535 0.02432194 -0.025394166 -0.060958415 0.030160375 -0.008902375 0.029309366 -0.039811525 0.080933 -0.026315339 0.015094463 -0.0530469 0.042162616 -0.006457872 -0.008948307
less -0.019255014 -0.030342136 0.004004627 0.03628138 0.03249219 -0.027724694 0.033168882 0.021249706 0.047968674 -0.0224523 0.037074868 0.03880973 0.058135375 -0.00920635 0.05862502 -0.026345214
mind -0.029401448 0.0026631856 -0.030755274 0.025118677 0.0100111365 0.018601207 -0.042023282 0.047759008 -0.024448939 -0.010413325 -0.041187942 -0.023675675 0.014446409 -0.05427563 0.010727319 0.036017574
simply -0.028180698 0.10627216 -0.038092956 -0.077483445 -0.03292985 -0.060420398 -0.032369904 0.009871532 -0.035637412 0.09559941 0.032989573 0.05819293 -0.041952975 0.081846766 -0.002971627 0.12591155
read 0.045767475 0.030656278 -0.011294761 0.10288429 -0.05559981 0.01653112 0.034805387 0.003879747 -0.0011746564 -0.0480958 -0.0102982735 0.022812862 -0.04868988 -0.014488024 0.016007636 -0.020329403
second -0.023123642 0.07971008 -0.03683569 -0.010980355 0.018410977 -0.019786656 -0.03849785 -0.0069828536 -0.031751215 0.023698876 0.07626114 -0.011935922 -0.050230183 0.0062445286 -0.02355201 -0.027431134
else -0.0544213 0.009071846 0.02245749 0.012956717 -0.03237383 0.037266947 -0.063534915 -0.06074183 -0.017853186 0.05830329 -0.010670651 0.04736614 0.023934785 0.04177706 0.026926825 0.03650081
you're -0.02863077 0.048476014 0.0066047884 -0.036160894 -0.0072156866 0.03876713 -0.028684929 0.052612428 -0.03509127 0.0056750565 -0.05517303 0.0319258 -0.0757404 0.057540055 0.07921154 -0.030176423
father 0.016590914 -0.08102251 0.029751036 -0.09599343 9.0527785e-05 -0.04459861 -0.015590527 0.03609586 -0.04497439 -0.02363409 0.040673915 -0.020652551 -0.07302909 -0.034189142 -0.04132263 -0.024078108
fan 0.008628914 0.004888152 0.017394474 -0.024611251 -0.013191003 -0.004134858 0.036887128 0.06272784 0.035158902 0.003217823 -0.03584819 0.04949592 -0.04203234 0.018249191 -0.050601654 0.054149173
poor -0.15267432 0.16661565 -0.06633835 -0.14341909 -0.172215 -0.08937942 -0.10613488 -0.08321736 0.006751109 0.10815497 -0.1567773 0.12700845 -0.038829062 0.08570865 -0.0010907071 0.17657349
help -0.0065938374 0.072786525 -0.07790068 0.061452266 -0.0077506998 -0.04863608 -0.06655665 -0.0013450983 0.029583363 -0.041333396 -0.037013043 0.041509304 0.006331125 0.0306062 0.055018675 0.04678431
completely 0.006991903 0.067555435 -0.08346274 -0.060287934 -0.01641339 -0.075172685 -0.059495334 -0.014726707 -0.025800245 0.059719555 0.027826263 0.053962722 -0.0765018 0.010312428 0.054404017 0.026229393
death -0.009340662 0.0227257 0.020000288 0.002308805 0.027478367 -0.04329768 0.020788765 0.02020087 0.020138528 -0.00035168388 -0.07232349 -0.020827308 0.03840555 -0.056050304 0.015296419 0.0004953569
3 -0.08832978 0.057481196 -0.014779703 -0.041146234 -0.10977282 -0.050754286 -0.011835244 -0.08515066 0.09720671 0.104642466 -0.03715793 0.038663678 -0.03149193 0.027121667 0.01076666 0.06247578
used 0.014136853 0.015532224 -0.040145632 -0.047088873 -0.0079271635 -0.059795264 -0.025791947 -0.0020940793 -0.022832008 0.026309935 -0.06930855 -0.024072487 -0.056967713 0.0516343 -0.00744159 -0.013183748
home -0.03111794 0.03517736 -0.054352354 0.018493742 0.04689061 -0.0030631698 -0.033382848 -0.06295072 0.03476447 -0.03395821 -0.03677094 -0.016689617 -0.054614086 -0.020386485 0.027643714 0.030458897
either -0.0147720305 0.0103273885 -0.038400188 -0.040288996 0.009075257 -0.06246361 0.027164353 0.026946535 -2.5133644e-05 0.016607586 -0.051697124 0.026431352 -0.077321135 0.066251576 -0.05431865 -0.0003534196
short 0.07451855 -0.009439771 0.02855153 0.06444105 0.012046042 -0.008231833 0.009139507 0.0014935503 -0.015167107 -0.017994847 0.08444578 -0.024371743 -0.0029947693 -0.012255005 -0.08505199 0.041450255
line 0.022213507 0.040989134 -0.038149666 -0.036067072 -0.040615596 -0.016271299 -0.04626241 -0.005113531 -0.043630656 0.038449906 -0.006795786 -0.015944123 -0.051213954 0.06701674 0.080683336 0.029980842
given -0.04420036 -0.062639415 0.042563017 -0.00033190628 0.017614603 0.030271834 0.015961563 -0.03464217 0.0324101 0.00744441 -0.013180594 -0.007004506 0.06288726 -0.023276972 0.00394519 -0.038470395
men -0.030712513 -0.0008920317 -0.0066359737 -0.05391667 0.04174575 0.020428505 -0.008708273 -0.03957289 0.051048342 -0.017575676 -0.07145856 -0.0044029895 0.019933691 -0.023439951 0.04131851 0.010538193
top 0.0060886233 -0.021131048 0.08322139 -0.008798294 0.028054135 0.04229001 0.11136986 0.056382097 -0.025980396 0.00042255857 0.011242989 -0.054257005 0.04086949 -0.031819087 -0.014666862 -0.031961583
dead 0.038177647 0.060389385 -0.063874975 -0.025443103 0.0058363746 -0.04685728 -0.0064783725 -0.02360995 -0.0097886 -0.039453663 -0.046290085 -0.019855252 0.05615264 -0.013350592 -0.06674247 0.003875817
budget 0.06852265 -0.014957595 0.0045830873 -0.02305027 -0.02402622 -0.017309971 0.027733972 0.0032381197 -0.019040164 -0.03952592 -0.037199456 0.06599772 -0.043320946 0.044918913 -0.05903029 0.006679578
try -0.01928481 0.039509516 -0.009300137 0.0015789511 0.01309551 0.013477946 -0.0012302283 -0.0426646 0.040560104 0.0520179 0.032609884 -0.024169281 -0.03926574 0.019231291 0.02731612 -0.044033054
performances 0.012867101 -0.059386056 0.059787415 -0.0019915432 -0.075437166 -0.034039773 0.030216461 0.058906373 -0.089638144 -0.032149598 0.043689445 -0.038717 0.030692017 -0.046536516 -0.10902376 -0.06927205
wrong 0.007967873 -0.048145566 -0.028389612 0.018269395 0.015200141 -0.09612858 -0.069923334 0.0486625 0.024326287 -0.068694085 -0.0032671045 0.09262273 0.036872916 0.019552091 -0.0516129 -0.008849785
classic 0.03947219 -0.008798554 0.041435 0.020564446 -0.02958866 0.05091869 -0.0137525555 -0.035532016 0.015359034 -0.08113272 0.05585577 0.0033314058 0.03482916 -0.01510606 -0.07527661 0.012561769
boring -0.035788678 0.13527934 -0.100647315 -0.12914082 -0.10823481 -0.024162242 -0.07499452 -0.119552925 0.07026409 0.117091596 -0.12727146 0.15733911 -0.13252611 0.1518072 0.122844346 0.118306406
enjoy 0.06426076 -0.09656969 0.055645965 0.07242329 0.019867761 0.010546928 0.06125589 0.056720875 -0.016484732 -0.0895801 0.06885029 -0.00014524358 0.04831912 -0.10505238 0.0017624223 -0.047128495
need -0.020720918 0.029369393 0.06506199 0.02383866 -0.05279446 -0.0051755616 0.018564358 0.02174481 0.04214013 -0.008978846 0.044268493 -0.055199016 -0.03306824 -0.04615218 -0.025700467 0.033280328
rest -0.009437371 -0.028425349 0.04957133 -0.05888693 -0.0026782653 -0.04404252 -0.033798262 0.03457186 -0.047979765 -0.025801862 -0.03221436 0.031414684 -0.005641425 -0.041143928 0.0068231584 -0.042591132
use -0.011120438 -0.0069142403 -0.0404183 -0.029376505 0.029522514 -0.06295955 -0.070101656 -0.019170022 0.054064717 0.008420214 -0.09132165 0.047332082 -0.032904115 0.037145253 0.056515615 -0.017992022
kids 0.05372104 -0.054426875 0.039040636 -0.039251033 -0.013632242 -0.011103754 -0.013202237 0.037518714 -0.00841614 -0.061704785 0.036315158 -0.05084155 0.010912713 -0.019145992 -0.04871096 0.0392859
hollywood 0.06258104 0.04657084 0.013947495 0.031152915 -0.017058278 0.021717569 0.02274324 0.010083696 -0.026583511 -0.0156554 -0.03569754 0.008088032 0.014413311 -0.009495882 0.05985034 -0.011525606
low 0.0399762 -0.018834163 -0.066326775 -0.02815577 0.0058503565 -0.039543074 0.028824948 0.023187973 0.08118813 0.07134186 0.011744045 0.009345993 -0.016009083 0.066916265 -0.0077162045 0.047098316
production -0.032554597 0.03493562 -0.06244116 -0.017882437 -0.013186781 -0.060907837 -0.007908067 -0.010355227 -0.014379209 0.06363581 -0.083643295 0.02632001 -0.02034417 0.09533961 0.0143781975 -0.045475636
until 0.013967352 -0.06464773 -0.016063258 0.008175542 0.055908732 0.02618694 0.04259754 0.08121464 -0.031080138 -0.083033025 0.06606697 -0.055746574 0.045376256 -0.0048983917 0.004855643 -0.07018918
along -0.015898127 0.043384515 -0.004237472 -0.09331413 -0.056611866 -0.031326342 0.016598383 -0.039063517 -0.010564308 0.01986454 0.033972085 0.006147779 0.014683661 -0.010151673 0.030230895 0.041936897
full 0.02553483 -0.012215993 0.05601247 0.032507762 -0.007233112 -0.024048503 0.11545414 0.053479176 0.036718104 -0.02587128 -0.038151287 0.013927902 -0.01868446 -0.05327804 -0.02695842 0.0053192875
friends 0.053962734 -0.05902742 0.07689704 -0.06729384 -0.038381282 -0.014541034 -0.012267914 0.03594048 0.010586749 -0.08489408 -0.009471258 -0.036620434 0.039199185 0.0043775537 -0.06270488 -0.0130929835
camera -0.029181832 0.022543017 0.051588785 0.10273957 0.041326694 -0.020408133 -0.06229938 0.00092829764 0.026129993 -0.0008232394 0.005810097 -0.032858156 -0.033137295 0.0075099138 0.03002928 0.047054406
truly -0.031106502 -0.042012554 0.0037782313 0.050263096 0.04164374 0.084105365 0.040811777 0.0042291493 -0.11228382 -0.0511597 0.09864804 -0.030436939 0.06899123 -0.023049261 -0.092478916 -0.09768061
women 0.009744818 0.023566717 -0.021668952 -0.02130311 -0.048410464 -0.09553919 -0.0764437 0.013470097 0.07434228 0.013872625 -0.07198852 0.06778721 -0.087023824 -0.010861525 0.071418084 0.038183823
awful -0.1302317 0.08023951 -0.07909245 -0.11972948 -0.12382764 -0.06789029 -0.07360007 -0.08729999 0.12205274 0.14637718 0.06502977 0.096754566 -0.048713315 0.1645854 0.16455813 0.16962229
video -0.015606562 0.06198524 0.02755258 0.02105424 -0.009550409 -0.013315601 -0.02904679 -0.004250689 -0.021915987 -0.022399357 0.036709264 -0.04251287 -0.026828203 -0.042042274 0.0095719835 -0.021617936
next -0.009987885 0.0053509013 0.017474677 -0.02295428 -0.023223866 0.022098217 -0.018134246 0.02131092 -0.02763771 -0.01507336 0.014034814 -0.058943056 0.006141586 -0.012684979 0.02480937 -0.023681687
tell -0.004692252 -0.04357655 0.023713069 0.041735213 0.06840332 -0.025927968 0.002392363 0.039908398 -0.0011112803 0.0061540375 0.06369001 0.010402692 -0.029749839 -0.0125694135 0.02668898 -0.071445435
remember -0.02581454 -0.032731704 -0.03307581 0.054437485 0.0070973593 0.036731713 0.02746653 0.058864236 0.0029522358 -0.061227135 0.004885762 -0.005077216 0.020609893 -0.04241925 0.031459756 -0.02291584
couple -0.036616143 0.025221208 -0.05786729 0.01841508 -0.038267255 -0.046976976 -0.016650489 0.021247847 0.05012992 0.013882893 0.01951262 0.07055939 0.026105417 0.042289834 -0.002367691 -0.021033235
stupid -0.092092544 0.055145625 -0.0013030758 -0.10007093 0.065660745 -0.013567704 -0.06639366 -0.0048599113 0.022029612 -0.051146727 -0.039310567 0.08956572 -0.03195701 0.0814335 -0.0032027026 0.05938588
start -0.039751936 0.05507348 0.06512679 0.009640141 0.022125255 0.017314157 -0.053812236 0.033196695 0.028671863 -0.013679669 -0.062409144 -0.013956541 -0.03246752 0.022710858 0.11202135 0.038341083
stars 0.024667736 -0.07819242 -0.017148074 0.0035015482 -0.0205459 -0.023434628 0.0106341895 0.0034804002 -0.031280436 -0.0012724664 -0.024426786 -0.019054532 0.020926178 0.03556267 -0.04599758 -0.0060712947
perhaps -0.08120511 0.013876951 -0.060054176 0.02326933 -0.049290385 0.035111252 -0.005917133 -0.037237402 0.05251689 0.049596135 -0.001321637 0.00028230614 -0.010363043 0.03711105 0.009013477 0.012522071
sex -0.0023358325 0.008273997 0.0084516285 0.040076923 -0.034854446 0.05791987 -0.030326081 -0.04901592 0.009710317 0.012845627 0.100506835 0.0518982 0.053910285 0.031433467 0.012458406 0.01570601
mean 0.027621478 0.09594885 -0.007948509 0.008003618 0.015184912 -0.033154193 0.052498393 0.0034957225 0.014936434 0.02511613 -0.04379151 0.05499066 0.0062544798 -0.036511578 -0.0006870171 0.03311221
came -0.0031448887 -0.008529185 -0.007521136 -0.05630991 -0.004156607 -0.018395366 -0.04670236 0.013753237 0.058115046 0.034320157 -0.03968525 -0.034622043 0.0014252894 0.049416725 -0.032198958 0.048192725
recommend 0.08912098 -0.069467746 0.11024255 -0.16340716 0.012165233 0.0008745766 -0.12053519 0.070774026 0.046399366 -0.07790046 0.07494677 -0.0069160876 -0.027284069 -0.11799936 0.03435436 -0.011924337
let 0.021998936 0.004411515 -0.0035964535 0.017842147 0.00053944223 0.01293327 0.07172085 0.015779307 -0.09833758 0.06894154 -0.040820323 -0.022327308 0.02426758 -0.019058295 0.01878218 0.015298839
moments 0.03733177 0.022399316 0.03487782 0.09284524 -0.032949224 0.07215192 0.008385823 0.030900545 -0.0848934 -0.02490474 0.04525466 -0.026772084 -0.017088054 -0.04396772 0.037065558 -0.019107422
wonderful 0.11345852 -0.12048928 0.15375425 0.020972515 0.02352511 0.14752755 0.06233257 0.17275293 -0.12418807 -0.11042836 0.15173976 -0.103216544 0.11225325 -0.09079419 -0.059064224 -0.114824034
episode 0.06275268 -0.0017433658 0.049699698 -0.013976419 0.049395487 0.062076706 0.007383631 0.014051214 0.00090496935 -0.08126227 0.050653916 -0.0019720376 0.02361502 -0.016359696 0.02976608 -0.043392148
understand -0.015602755 -0.038127314 -0.023270864 0.08085256 0.08325019 0.0046243635 0.035789672 0.016036613 0.0015860605 -0.040591177 -0.06897311 -0.0338352 0.056375958 -0.0051838406 -0.029399056 -0.06360184
small -0.023470389 -0.01347139 0.035576694 0.02435652 -0.012923485 -0.053679414 -0.019003848 -0.048728567 -0.032813143 -0.023875825 -0.08234723 0.028539697 0.041978676 0.02618557 0.03243168 -0.030455591
face 0.01395066 0.022240631 0.04575437 -0.013692293 -0.029909875 0.043065116 -0.03260234 -0.058439236 0.06690615 0.03506598 0.045577344 0.00040784903 0.014069116 -0.010272146 0.0042343987 0.049756464
terrible -0.065276965 0.055084534 -0.0374072 -0.06114876 -0.10646905 -0.062322628 -0.166989 -0.1085048 0.022741467 0.0013481647 -0.027224027 0.11047117 -0.010685078 0.055242214 0.115182094 0.12078452
playing -0.086670175 0.0018944931 -0.031645253 -0.058509253 -0.04618945 0.019434184 -0.052821085 0.018306332 -0.005469362 0.044017505 -0.006439501 0.060976446 -0.035057902 0.017262168 0.053033836 0.010611753
school -0.037943095 0.035684872 -0.05833048 -0.034698572 -0.06129513 -0.016599737 -0.020303441 -0.047257595 -0.0008239597 0.020299833 0.024136448 0.057389088 -0.04017848 -0.01739163 0.07485369 0.026370931
getting 0.036287814 0.031677548 0.016397059 -0.022537384 0.021664826 0.027917199 0.041357435 -0.030127743 0.023772394 -0.008755256 -0.021827312 0.033657998 -0.025910428 -0.022794176 -0.024877213 -0.037015986
written 0.012046528 -0.026907261 0.02270609 -0.004066378 0.026520679 -0.024876941 -0.03946797 0.029748648 0.019595353 -0.020173606 -0.018139506 0.06565015 -0.06984038 -0.034762718 0.0027544573 0.04110932
doing -0.026793592 0.052389063 -0.036751855 -0.007513573 -0.043950625 -0.01939356 -0.0052817366 0.00083479076 -0.042012878 0.013031715 -0.11255301 0.026309483 -0.021655468 0.037612975 -0.07335601 -0.025016336
often 0.005247553 -0.0095398165 -0.052706063 0.08463882 0.03231118 0.062326275 -0.034240443 -0.048492152 -0.080875896 -0.031786732 0.019407507 -0.011158768 -0.030180477 -0.071492985 0.025243752 0.030049572
keep -0.034809913 -0.045012146 -0.06250116 -0.04371053 -0.048854534 -0.019230757 -0.05786777 -0.022887586 -0.037471905 -0.035487633 -0.010714718 0.050936367 -0.02774277 -0.055533815 -0.0006258849 -0.0105906455
early -0.009269891 0.01545591 -0.022731485 0.009671456 0.058022946 -0.057052568 -0.016365886 0.09465222 0.00032386833 -0.048778724 -0.0024018579 0.0012862498 -0.024240289 0.015226684 -0.06789501 -0.04598625
name 0.019644469 0.022966305 -0.049720578 -0.005159906 0.012714251 0.032888085 0.012252488 0.03653063 0.027027162 0.023763755 -0.04561109 0.074704185 -0.04310362 -0.0002448327 -0.02554064 0.04407244
perfect 0.059361644 -0.17564419 0.124127984 0.103251666 0.10178074 0.11731085 0.1731205 0.08684199 -0.08569562 -0.13160492 0.048183322 -0.08950392 0.091148295 -0.17928876 -0.08728657 -0.12635124
style 0.011652967 -0.04251685 0.017401226 0.05498581 0.04712177 0.07692313 0.013680271 0.0657215 -0.07647389 -0.05501043 0.008900037 -0.07492576 0.062461436 -0.048923183 0.020943236 -0.08195583
human 0.03596876 -0.08370063 0.059564866 0.0024653866 -0.024685001 -0.002813954 -0.04296779 0.05101564 0.023090968 -0.08828039 -0.030594451 -0.035656568 0.053350035 -0.092694454 0.09232939 -0.026035842
definitely 0.09299447 -0.14352192 0.09823853 0.0123948185 0.032885205 0.05502252 0.14223236 0.061336495 -0.057607587 -0.09465638 0.086458415 -0.076639 0.08784773 -0.049075816 -0.009054068 -0.1121994
gives 0.058679774 -0.04794479 0.07465771 -0.029594634 0.05376594 0.023802014 0.051937077 -0.0457945 -0.010854584 -0.005050623 -0.0066643334 -0.07392324 -0.03235067 -0.056380954 -0.07999868 -0.026331626
others 0.0126709705 -0.03834494 -0.0044872905 0.014074629 0.05495291 -0.024929127 -0.016517563 0.07135888 -0.07247101 0.011934451 0.03694972 -0.043795798 -0.025702119 -0.036642093 0.055563584 0.031400915
itself -0.085420504 0.044721164 -0.05272666 0.018676367 -0.037261687 -0.0071168523 -0.013703041 -0.10624622 0.10700202 0.1135705 0.016694356 -0.0049240203 -0.0120330155 0.08128422 0.06120214 0.10992947
lines -0.03862174 0.077467 0.034021903 -0.04109418 0.009660139 0.03328021 -0.032878265 -0.062394753 0.012137513 -0.0047107358 -0.0916611 0.0663348 -0.0057580727 0.08233547 -0.008788316 -0.023834322
live 0.07686915 -0.01208968 -0.0097824065 0.013421698 0.084293626 -0.0025661662 -0.0142006595 0.012179459 0.025851358 -0.039610516 0.05298838 -0.086609 0.022911994 -0.0022193983 -0.020944532 -0.041092202
become 0.022104895 -0.043551993 0.0741568 0.039072935 0.06674072 0.0538705 0.07771604 0.0036307655 0.0069614896 -0.040520124 -0.020544393 -0.056294568 0.02993314 -0.08248996 -0.024360219 -0.023926046
dialogue -0.00090760784 0.1015982 -0.093894646 -0.13886341 0.025537925 -0.007367715 0.07886283 0.0067789997 0.012124962 0.068216994 -0.07130604 0.06513216 -0.0452669 0.0685746 -0.013305189 0.0572988
person -0.018074788 0.03651466 0.008653907 -0.034030214 -0.050403148 -0.0076671275 -0.02840572 -0.023370853 0.052547667 -0.028392885 -0.05201076 0.013380382 0.03708943 -0.017485656 0.0014993481 -0.0046657305
lost -0.064979374 0.040055566 0.014492375 -0.043404844 0.0698736 -0.0667346 0.020943154 0.005967136 -0.015689362 0.05431651 -0.0285922 -0.02163019 -0.05658727 -0.020921022 -0.0040682424 0.044141512
finally -0.036097195 0.0050823744 0.018875595 -0.07330009 -0.026236212 -0.039592955 -0.008572967 0.002181533 0.024086786 0.038014904 -0.008035272 0.024329687 -0.04530159 0.037339855 0.017602166 0.02069692
piece -0.0630294 0.014864737 -0.039097752 -0.043154318 -0.07476706 0.021162514 -0.07163034 -0.036806937 0.06497469 0.049248777 0.037600208 0.08561704 0.0065309405 0.016074818 -0.0074700196 0.041183203
head -0.10696696 0.033192948 -0.049546983 0.026752273 -0.064076126 -0.014036238 -0.059835613 -0.060828693 0.06562704 0.0043974104 0.018272527 0.03547869 -0.01798374 -0.003008478 0.029133195 0.038229294
case -0.01649754 -0.01668324 0.036558922 0.015354472 0.056095857 0.010774732 0.034291867 0.0921112 -0.021819957 0.005847949 -0.0032213393 0.037476603 -0.058040906 -0.023465885 -0.043886762 -0.04476772
felt 0.030796278 -0.011141017 -0.05748045 0.03904111 -0.05489536 0.049416546 0.055851772 0.026160583 -0.05794407 0.028871445 -0.025773196 -0.018679054 0.009415453 0.05411709 -0.06095239 0.02466194
yes -0.015966551 -0.077405095 0.10090605 0.071750075 0.09212969 0.011033173 0.07623207 0.026302941 -0.066885024 -0.08526641 -0.046945963 -0.03204796 0.022268636 0.04192872 0.04518921 -0.03421349
liked 0.0031019326 -0.053691875 0.074180976 0.08438682 0.12389788 0.060912248 0.04244861 0.06098098 -0.041852895 -0.08911038 0.011933925 -0.06309712 0.06388012 -0.10774256 0.020149969 -0.08013576
supposed 0.023872307 0.06331723 -0.09608948 -0.045647483 -0.057684824 -0.106078126 0.004177954 -0.049959507 0.0051842746 0.093735345 -0.10473977 0.033196475 0.027035965 0.084035315 0.03366718 0.08455361
title -0.073812366 0.06299849 -0.07429113 -0.05083262 -0.028768783 -0.06606022 -0.030578908 -0.065091304 0.074901074 -0.017832244 0.09353683 0.04158165 -0.034487203 -0.022296723 -0.028169353 0.009775796
couldn't -0.013655966 0.09225062 0.012670709 0.048347015 -0.08474007 0.072774015 -0.07582988 -0.089308314 0.03518426 0.09110027 -0.035330474 0.081537314 -0.033067185 0.012878146 -0.043968122 0.06847621
absolutely -0.05216303 0.045835104 -0.037374858 0.0072946222 -0.021575034 -0.042391855 -0.032061625 0.021860033 -0.0014326022 0.089165315 0.042936727 0.033468775 0.023261826 -0.0051513375 -0.08372701 -0.015419836
white 0.0023392432 0.010512121 0.016918443 0.042990908 0.03215009 0.0553295 -0.0139454305 -0.043747935 0.007964497 0.019631365 0.00531627 -0.065629356 0.072700635 -0.003113058 0.012842433 -0.058648262
against -0.035426646 -0.008984898 0.068392694 0.059984338 0.04907577 -0.021229235 0.013683182 0.017507084 0.01454882 0.0115981335 0.011824306 0.042304233 0.04546083 -0.025251256 0.03888344 -0.04161825
boy 0.058712978 -0.04256757 0.035498958 0.038595874 -0.008808242 -0.0016108849 -0.0012988475 0.0030088164 -0.03031884 -0.055516154 -0.016382864 -0.089857526 -0.032314133 -0.021579044 -0.056687426 -0.055990748
picture -0.045439437 0.041739315 0.014952417 -0.036771797 -0.090675704 0.021834187 0.023838257 0.028510608 -0.014543176 0.08590624 -0.004344261 -0.020819323 0.04470501 0.021244617 0.025827086 -0.0560308
sort 0.028872773 0.041313354 -0.024179926 0.01894279 0.020587882 -0.048845142 -0.041970666 0.050443668 0.04367467 0.00075042713 0.09486611 0.06353745 -0.058724616 0.029181192 -0.018097548 0.012129322
worse -0.16213137 0.13810027 -0.1171577 0.110485 -0.15417324 -0.11521302 -0.07523099 -0.09841148 0.13614753 0.025669074 0.12326591 0.11385406 -0.10370693 0.15117772 -0.03524237 0.10041334
certainly 0.0016423791 -0.011995744 0.01741943 -0.07998031 -0.003311739 0.028433587 0.018832665 0.017284205 0.028654957 -0.04268673 -0.0132250395 -0.008309673 -0.0014584068 -0.051962756 -0.041715555 0.03838562
went 0.016702063 0.060645454 -0.03428175 -0.03018385 -0.07967738 -0.020823043 -0.0021035345 -0.09242863 0.012968836 0.043855187 -0.11846352 0.09364986 -0.0261156 0.023681805 0.05813721 0.014406769
entire -0.10186313 0.08663238 0.022588363 0.05943113 -0.099913776 -0.04524536 -0.07337655 -0.009247152 0.014507304 0.09761535 0.009435795 -0.014824463 0.020262739 0.08256365 0.006538551 0.046510372
waste -0.21087672 0.16365616 0.0021419437 0.03769594 -0.21494225 0.05105393 -0.18827404 -0.19476928 0.21617693 0.13320173 -0.081990436 0.12874155 -0.15066735 0.22489655 0.18522047 0.12747066
cinema 0.006455594 -0.10762561 -0.020007215 0.03382091 0.019695848 0.079124495 0.055696446 0.036371525 0.0019394784 -0.022867521 -0.026100477 -0.050941143 0.021802116 -0.08253745 -0.007842376 -0.03400707
problem -0.08909201 0.0062484075 -0.002450894 -0.06121579 0.017506536 -0.047051832 0.008642706 -0.040036164 0.08413283 0.09172061 -0.066872425 0.047773775 -0.030245585 0.012241626 0.054504447 0.03884709
hope 0.0627967 -0.03598825 0.038979538 0.007703925 -0.012726886 0.051799353 -0.014766107 0.015411737 0.008419327 -0.039928023 0.09818981 -0.001182521 -0.025437493 -0.019415718 -0.010022458 -0.081718296
entertaining 0.12785698 -0.09765822 0.08437142 0.09171498 0.07222038 0.061798893 0.09332491 0.09878776 -0.069385014 -0.16113378 0.04680925 -0.047567576 0.12053925 -0.1616126 -0.094663866 -0.10089786
she's 0.011987547 0.045531858 -0.004613286 -0.046873044 -0.0111500705 -0.018431606 0.05575739 -0.0015550826 -0.03817093 0.057893913 0.032152712 0.03537662 -0.040558472 -0.055563916 -0.027007883 0.022201627
mr -0.018372241 0.056988336 -0.07949069 0.030871851 -0.047305476 -0.028533513 0.0006163622 0.046315454 0.0084868185 0.053600658 -0.03947865 0.030610949 -0.024016492 0.023359489 -0.040910102 0.026974432
overall -0.054782733 -0.014652329 -0.013613432 0.0056161215 -0.005725544 -0.02855619 -0.019271906 -0.079654254 0.0418906 0.02629458 0.12981898 -0.02008402 0.020384056 0.014601488 -0.05196138 0.007402039
evil 0.009619868 0.0064063147 -0.043997273 0.051971696 0.031726398 -0.03921857 0.03306452 0.045422535 0.06208751 0.039782815 0.02568357 -0.00033644258 0.008706408 -0.027639521 -0.032958947 -0.027495138
called 0.058275174 -0.02165273 0.0070124767 -0.02359957 -0.01949962 0.0031600269 -0.0023069587 0.033783846 -0.035459816 0.023601003 0.0017303271 0.036157094 -0.004029073 -0.00056153385 -0.028838461 0.032003682
loved 0.09671387 -0.09277221 0.048197914 0.024672301 0.08699248 0.0997665 0.071018554 0.12865904 -0.06907236 -0.11551413 0.06446044 -0.13972308 0.027175996 -0.09661794 -0.046565935 -0.023527252
based 0.019181313 -0.009740888 0.06139797 -0.031419773 0.06845758 0.043710675 0.03989914 0.045238897 0.014318537 -0.08195473 0.021116937 -0.016234964 0.04096372 -0.1002918 -0.06261978 -0.08772408
oh -0.042534035 0.09493347 -0.07318372 -0.16126649 -0.11415753 -0.10421553 0.014083444 -0.0165571 0.07278402 0.12861374 -0.10257859 0.14809586 -0.08511362 0.13572407 0.082796395 0.058172334
several 0.026402429 -0.0076236515 0.055630546 0.07234447 0.054738123 0.012208771 -0.00888886 0.0033734029 -0.06336545 -0.04649559 0.09910349 -0.045302395 0.020233404 -0.0060940213 0.028967798 -0.035580672
fans 0.1024853 -0.105246425 0.03538783 0.058352496 0.07141541 0.055160854 0.06278703 0.100773275 -0.024616463 -0.017677087 0.024994625 -0.060562074 0.05585897 -0.008999806 -0.031302016 0.013198089
mother -0.023797324 0.026721898 -0.11278346 0.010082639 -0.009425166 0.023046786 -0.011495387 -0.009675556 -0.019558884 -0.00072201685 -0.05339516 -0.006533861 -0.018457424 0.06756691 0.072268225 -0.005700602
drama 0.023788458 -0.026515821 0.043971397 -0.008396393 -0.041865364 -0.038936548 0.05151891 -0.02362462 -0.05119097 0.0425297 0.0018212093 -0.02099199 -0.008542179 0.0013000782 -0.045543287 -0.021432504
beginning -0.0121857235 -0.055126365 0.059745178 0.087201826 -0.015354364 0.03983563 0.009877464 0.014004289 0.0028260297 -0.037714846 -0.008015896 -0.0056715137 -0.04656213 0.040515263 0.0071438444 -0.0036274658
killer -0.014895081 -0.01384998 -0.050779812 -0.040549852 0.04973015 0.018296016 -0.021279937 0.004638042 0.019181823 0.025367742 -0.012987739 0.025364889 -0.023881769 -0.034424536 -0.016044067 0.033155087
lives -0.048070557 -0.06065146 0.026370429 0.040638506 0.0603928 0.004826846 0.004888986 0.0048068543 0.032375026 -0.06891337 0.0028566993 -0.08952497 0.010733186 -0.07301077 -0.037342507 0.021118982
5 0.02487587 0.025624108 -0.01635353 -0.04177519 -0.01703627 -0.024466045 0.043461945 0.011990387 -0.03411146 0.039614685 0.025886022 -0.015148994 -0.04920193 -0.046563014 0.041288387 -0.016238663
direction 0.025118107 0.06922187 0.010183576 -0.005967553 0.022556147 0.014593492 -0.006157738 0.021574609 0.042083405 -0.0632607 -0.03577152 0.05673241 0.032819476 0.07006879 0.047045153 -0.007497016
care -0.091910034 0.064341575 -0.08668722 -0.06462196 -0.05151844 -0.06408791 -0.012037524 -0.031399675 0.030409867 0.049581748 -0.085656166 0.084666684 -0.08004835 0.124809064 -0.0038875947 0.09425804
already -0.04132241 0.03128616 -0.011936772 -0.044943575 0.02905952 0.045175135 -0.06071208 -0.051270626 -0.008186738 -0.011921087 -0.021113006 0.069036566 0.033648334 -0.0028696535 -0.042108532 0.019860804
becomes 0.05331624 -0.04739995 0.03707442 0.013262274 -0.017656056 -0.031624172 0.05902623 0.032144383 0.022727316 -0.021161068 -0.054266997 -0.027078798 0.06619976 0.031911366 0.03428924 0.032153714
laugh 0.073238365 -0.056359865 0.030029528 0.0024072553 0.06541831 -0.045034282 -0.027514007 -0.0013693515 -0.005127641 0.016663646 0.021768922 -0.0013909601 -0.042851523 -0.019448174 0.07460225 0.021513436
example -0.008265337 0.022965262 0.006294149 -0.07250902 -0.052940197 -0.043133404 0.04119012 -0.03703594 0.084430434 0.04706144 -0.059672855 0.06533216 0.032268263 0.027208725 -0.00084501394 -0.009681518
friend -0.047200657 -0.011767864 -0.009425739 -0.016861642 0.003959483 -0.0970555 -0.061082467 0.017001685 0.01687165 0.021754414 0.04771617 0.038137566 -0.09675918 0.050981462 -0.065473504 0.06969731
dark 0.026376266 -0.105520114 0.0046607987 -0.043632854 0.03212841 -0.0054863207 0.08550364 0.015933678 -0.10660414 -0.03957314 0.014609098 -0.09265505 0.039883215 -0.07341075 -0.07895154 -0.042011373
despite -0.048256103 0.008400632 -0.069582574 -0.028456457 -0.00030803477 -0.06624878 -0.011750234 0.017935291 0.0636715 -0.020289507 0.0129739 0.029614791 -0.040308744 0.041705627 0.063200705 0.040129736
under -0.0401215 0.027138658 -0.06672795 0.055616632 0.043747593 0.007845429 0.010274737 0.015637813 -0.06941638 0.04778014 0.016768554 0.038047045 -0.026843252 -0.0045231837 0.01897066 0.007027214
seemed -0.043096125 0.049690045 -0.025340134 -0.057087712 -0.01821381 0.026637174 0.00085940096 -0.04569183 0.025767647 0.021065544 -0.048855796 0.05717654 -0.06301121 0.06400793 0.080659814 -0.014031527
throughout 0.038614437 -0.0030798593 0.06082375 0.016984943 0.057011902 0.03636823 -0.00065767777 0.07904213 0.016459825 -0.019868284 0.015818283 -0.0472602 0.043577354 -0.010367141 0.02926977 0.0024804815
4 -0.030814186 0.010514211 -0.08664466 -0.024491934 -0.014869078 -0.08979939 -0.09321156 0.00014608688 0.057543073 0.03550758 -0.07982386 0.086432375 -0.053373355 0.062241204 0.11197454 0.026050415
turn -0.02651354 0.029273676 -0.031103022 -0.037221286 -0.07306469 -0.04576891 -0.013808547 -0.021666134 0.08647244 0.02989068 0.07071873 0.047054928 -0.029960481 0.06505499 0.04152892 0.07599736
unfortunately -0.1319023 0.0635811 -0.087714285 0.038623717 -0.13126376 -0.10275756 -0.077157654 -0.05133422 0.10152759 0.023927564 -0.025111945 0.07989355 -0.062007528 0.019777767 0.062006395 0.070476435
wanted -0.015682554 -0.051520437 -0.012143217 0.08657989 0.00806277 -0.0190684 -0.030021157 -0.040549804 -0.04432657 0.0021901173 0.019279553 -0.033546336 -0.0012327869 -0.01851392 -0.074260816 -0.07676632
i'd -0.032477785 0.006102257 0.02001775 0.044635672 0.0382716 0.020780168 0.0065457057 -0.030526126 -0.0041555627 -0.016218694 -0.07732917 -0.002882516 0.01572729 1.642729e-05 -0.017791085 0.014840037
 -0.039272327 -0.020228371 0.036303293 0.016001625 -0.03563778 -0.04341979 0.0146447 0.02571163 -0.056505725 -0.028727397 0.019024244 -0.051901642 0.005041056 0.0315956 -0.037005424 -0.00082625967
children -0.053035893 -0.02807772 -0.04216031 -0.0029289562 0.00033733348 -0.037561566 0.008732457 0.00057450595 -0.0074347653 0.007487802 -0.04041542 0.053605344 0.043057166 -0.007813634 0.014240153 0.010817782
final 0.043551102 -0.040474858 0.039641906 0.064348 0.05096298 0.046867825 0.09262833 0.031761754 -0.031055363 -0.04556546 -0.016735438 -0.03775755 0.08411138 0.027730612 -0.039171226 -0.014485736
fine 0.08618111 -0.058449354 0.057269514 0.021338018 0.008886465 -0.021463903 -0.009134892 0.03488075 -0.044155058 -0.103651606 0.019075122 -0.09354488 0.008786986 -0.10595455 -0.01667648 -0.032873012
history 0.05626729 -0.026909329 0.011618852 0.025486564 -0.018739428 -0.034685202 -0.007870441 -0.032359228 -0.06237921 -0.05178975 0.08601214 -0.05476951 0.05323367 -0.0011248927 0.033773836 -0.04331105
amazing 0.034562025 -0.09817366 -0.007363953 0.07410136 0.14247167 0.10852076 -0.0050519845 0.12938778 -0.17158811 -0.09962158 0.12000802 -0.10415532 0.13442773 -0.13611041 -0.06046003 -0.10766306
sound 0.06995015 -0.035520032 0.042132244 -0.0015520821 -0.021011261 0.009679307 -0.05464813 0.015228246 -0.030694755 0.0075452304 0.04050005 0.013899264 -0.012170997 -0.06321277 0.036424354 0.035401236
guess -0.06655187 0.027409093 -0.047522295 0.010334158 -0.052579846 -0.09570773 -0.067754455 -0.012977741 0.0488299 0.026889693 -0.0081587965 0.04732301 0.052155312 0.09965853 0.0073764673 0.05973814
heart 0.05998056 -0.08318741 0.0691215 0.039449155 -0.005210398 0.113793656 0.03884127 0.078567944 -0.039278835 -0.03378573 0.0397817 -0.04124493 0.112031884 -0.024588281 -0.09349927 -0.039659318
totally 0.048142817 0.021834427 -0.021546293 -0.07176961 -0.010502006 -0.04216967 0.027422223 0.031737126 0.005262823 0.041508816 0.015122781 0.009609894 0.020130618 0.04879785 0.012725367 0.016016202
lead 0.029108433 -0.038987592 -0.03076786 -0.005791364 0.034712113 -0.005060563 -0.0003608957 0.02192531 0.030180547 -0.0562215 0.03562182 0.040666796 0.0045533576 0.030081704 -0.039148703 0.050803214
humor 0.004177945 -0.100862265 0.027454346 0.08315744 -0.03087623 -0.042786688 0.03197506 0.020181915 -0.006858815 -0.04081359 0.03383501 -0.04411591 0.047785893 -0.10180141 -0.055781752 -0.03441922
writing -0.049361944 0.050050244 0.0077034514 0.022485554 0.004954088 -0.09681717 -0.056941178 -0.03829488 -0.023586191 0.032223493 -0.048769392 0.029527819 -0.06634425 -0.019069616 0.004701329 0.028486516
michael 0.034900222 -0.04368573 -0.08084968 0.024818722 0.036165558 0.03923455 -0.012626782 0.038234252 -0.06348988 0.027343895 -0.014765007 -0.068733126 0.0016388602 -0.027722947 -0.037825756 0.015025648
quality 0.08950048 -0.020859377 -0.049584575 0.0040475344 -0.014051138 0.0006416424 0.04087545 0.033639185 -0.06006263 -0.0036850243 -0.060406327 -0.02797231 0.0028860788 -0.07943786 -0.027762314 -0.09224699
you'll 0.007656202 0.048580416 -0.051911693 0.009214872 0.043117672 0.08054144 0.041442797 -0.046318155 0.018377 -0.043889906 -0.02625969 -0.037084144 -0.018843137 0.012321454 0.009348046 -0.040959734
close 0.015793396 0.019858887 -0.0039088526 0.015239992 0.043983165 -0.03858145 0.034767486 0.008323564 -0.025749197 -0.096523345 -0.025926402 0.05619178 -0.040090006 0.039406467 0.034640677 -0.050235353
son 0.064691916 0.0040836455 0.06485532 -0.0007511012 0.042855885 -0.00016039086 -0.022925653 0.008458611 0.015452595 -0.012115649 -0.06243144 0.000745639 0.019440237 -0.036341935 0.003891922 0.0165913
guys 0.047151897 -0.08577386 0.0049538375 0.08696274 -0.019732833 -0.039131235 0.033414032 0.03314923 0.02127622 -0.06435065 -0.008386602 -0.025440825 0.007000252 0.028705396 0.010189964 -0.074580096
wants -0.04506568 -0.005960606 -0.0053122155 -0.071934246 0.004558273 0.025193756 0.018135076 0.030859351 0.034604087 0.005861437 -0.031546265 0.059204817 -0.057918295 0.031572152 0.0054029287 0.0634082
works 0.0021612197 -0.06289346 0.044164114 -0.0446502 0.0660748 -0.025245514 0.039066214 0.045459215 0.0090546515 0.001991009 0.0075638094 -0.046063785 0.051124945 -0.05646962 -0.045511797 0.0048231115
behind -0.037093606 0.025139714 -0.011717046 0.012245575 0.025484324 -0.023163056 0.047545973 0.019741341 -0.008420137 -0.0021098747 -0.018259915 -0.06393481 0.0034206863 -0.068522155 0.0011379049 -0.062120378
tries -0.09820975 0.025297537 -0.01294913 0.011319195 -0.015394588 -0.09484472 -0.07694113 -0.046243183 0.1389988 0.06688842 0.067786574 0.10239441 -0.018375358 0.1220041 0.008418021 -0.010473038
art -0.011443331 0.029654495 0.024321878 0.05766596 0.052855484 -0.01757855 0.020056468 -0.03300645 -0.057242285 -0.020634605 0.036324162 -0.021671936 0.005969798 -0.007798269 0.04138571 -0.01267778
